encog,BasicNetwork,java,3.4.1,1,1524030237734
[BASIC]
[BASIC:PARAMS]
[BASIC:NETWORK]
beginTraining=0
connectionLimit=0
contextTargetOffset=0,0,0
contextTargetSize=0,0,0
endTraining=2
hasContext=f
inputCount=24
layerCounts=25,21,25
layerFeedCounts=24,20,24
layerContextCount=0,0,0
layerIndex=0,25,46
output=2.3554018719,1.5921946353,0,0.5203050148,1.9514928225,0,0,0,0,2.5435571334,0,2.1779223926,1.4260691256,0,0,0.0642778525,0,0,0,0,1.1960763096,0.2929229229,0,0,1,0.4385321188,1.1524852754,0.4978059245,0,1.8115475418,1.2550977069,0,0,0.7010799048,1.1350825282,0,1.5983747339,0.0384819091,0,0,0,0.1144899619,0,0,0,1,0,0,0,0,0,0,1,0,0,0,0,0,0,0,1,0,0,0,0,0,0,0,0,0,1
outputCount=24
weightIndex=0,504,1004
weights=0.3845487534,0.0180134906,-0.3119100607,-0.0122791113,0.0917323861,-1.1324907217,0.8107599878,-0.3861287099,0.3520948473,0.6846505418,-0.9940626192,-0.6995208502,0.8483228347,-0.7672205072,0.8157428104,-0.5534723738,0.362642846,-0.7017089821,0.2047507352,-0.0046648179,0.5080361821,0.2971368089,0.5881748475,-0.1609929514,0.7563117894,0.0568512038,-1.0704823607,-0.2791452805,0.3436094118,-0.8545992238,0.2641520268,0.2858903191,0.3539725277,-0.330839959,-0.4324283752,-0.1589782128,0.2667670828,-0.0005255964,-0.3205750021,-0.1978638608,0.3635135105,0.3716249516,0.335033519,0.2078329772,0.7636758211,0.4465178866,-0.9015215248,0.2784473477,-0.6130016079,-0.233143986,0.057279482,0.6520908831,-0.0119347341,-0.904459945,-0.7146320016,-0.0956058946,-0.347999184,0.4558147321,0.1478048139,-0.8282882677,0.407061862,0.2795650313,-0.761284656,-0.2051902572,0.3158770351,0.7378607972,0.2125030863,-0.8196766488,-0.1350619612,0.0191128362,0.505345865,-0.7809966782,-0.4580535878,-0.4534328872,0.4684599098,0.5013719054,-0.4104652823,-0.889909476,-0.3070381402,0.2707207212,-0.1702330156,0.0911269055,-0.5371479937,0.7723676963,-0.0687113959,-0.1622552318,0.1979073064,-0.1088805301,-0.0112431461,0.3639713201,-0.1142100606,0.0553012675,-0.7838126364,0.1470535067,-0.7456967524,-0.494537798,-0.8551668163,-0.5196602015,0.9126193052,0.1021327965,-0.6494017583,0.5779795282,0.2339681615,0.9543170012,0.2081032851,-0.3033833666,0.2141487843,-0.9902554862,0.4636678803,-0.1884735224,-0.5865207153,0.8841632019,0.1896624109,-0.7402894208,-1.0017094229,0.4240407296,0.6370200466,0.4116953692,-0.8208323061,0.051658585,0.7859747259,0.6605226471,-0.4955451277,0.5374364736,-0.3324576813,-0.3032469803,0.1463844897,0.4205487537,-0.4601235098,-0.5590644091,-0.8964993727,-0.6174110296,-0.56110218,0.4973237529,0.5707344085,-0.7997469876,-0.5712905922,0.0954849497,-0.2995627323,-0.0416426174,-0.5236257197,-0.9404349386,-0.359599367,0.0414635737,0.805202626,-0.9894366225,-0.3574144816,-0.721287164,-0.7679082344,0.9731124012,0.3070318179,-0.4148840321,-0.7414087895,0.8069474798,0.6125995908,0.5709493479,-0.6095593096,0.0070604726,0.2802068269,0.7589635807,-0.9616110201,0.5384033123,0.4937546997,0.0338381424,-0.1549478069,-0.4132953325,0.1844861013,-0.1754698894,-0.9907201065,0.0826914224,0.3389648451,0.648987091,-0.9966138827,-0.5020053239,0.226609491,-0.3416876695,0.1599484702,-0.9738034019,0.0817526896,0.5008930716,0.2148036018,0.6915787513,0.0393403195,0.6715031218,0.6487066799,-0.6902758386,0.1590145628,-0.1592136001,0.3931414862,-0.3082121905,-0.0492108187,0.2002511861,-0.4071743197,-0.0478481126,-0.7387105732,-0.2995241675,-0.0599362155,-0.3442737318,0.4966839592,0.28143463,-0.2620550717,0.3667215284,0.1005689192,-0.5265274649,0.6988852099,-0.7662679773,0.5290896283,-0.1898367325,0.7507227316,0.2581938237,0.1434773357,0.0444596861,-0.1801741823,-0.0092965352,-0.8088141256,-0.6907011314,0.3409294132,-0.546952618,0.0912282139,-0.2813459524,-0.0561205702,-0.0621079504,-0.1907355732,0.0962500906,0.3449027897,-0.6390749778,0.6966096575,0.3575433479,0.0222659495,-0.6300381785,0.1703863326,-0.6837417935,0.4942502643,0.5780309307,0.8343869505,0.0597129849,0.0221831835,0.7438282416,0.15429899,-0.7879396456,0.756353935,0.2780235206,0.0093025548,0.7643600767,-0.7195822777,-0.855782133,0.4388819034,-0.9139223142,0.7587951423,-0.3766192461,-0.5610605485,-0.435761638,-0.0478517092,0.0902457787,0.0591472544,0.9134656287,0.4862261437,-0.1350766146,-0.0441863226,0.5425497149,0.4233429393,0.2629013308,-0.2453480936,-0.5119577275,-0.1990955014,-0.2015575309,0.4430261922,-0.3631510595,-0.1068690543,-0.8610417551,-0.7707990355,-0.0915867835,-1.0974579473,-0.7040667319,0.6517476296,-0.2750536034,0.3773160256,0.0086760418,-0.4038161777,0.1207338637,-0.4403784951,-0.0241719369,0.7452799396,-0.5639667589,-0.7044134613,-0.845430354,-0.4114764071,0.9693802727,0.3983810501,0.8480545273,0.5321904887,-0.2715865419,-0.2612281049,-0.2720084876,0.5826608186,0.0548643942,-0.335390071,0.5767212369,-0.1024912775,-0.4232920266,0.5468584379,0.6336517138,-0.9604728048,0.5498336317,0.2822206865,-0.5687399483,-0.0168371161,-0.7084755603,-0.7163431358,0.7217143419,0.1873096645,-0.5558149244,-0.4889984726,0.2245192753,0.1067378692,0.4089740646,-0.4909162336,0.9045335881,0.8853814574,0.0420198228,0.480138509,0.6868396348,0.3377757794,-0.6844721482,-0.2386587734,-0.7007274641,-0.7934378017,0.9869972169,-0.5883441588,0.7239307622,-0.3350125929,-0.3458372267,0.001428784,-0.3015635859,0.4317317192,0.0158646882,-0.4820272886,-0.833127721,-0.8954958882,0.5796575304,-0.7817010713,-0.2187491909,-0.9143128764,-0.5408494292,-0.878778215,0.8267074916,0.0433038467,0.3473986115,-0.4439639666,-0.17174059,-0.6229330145,0.3725003916,0.0937079444,0.7301060866,0.1575150438,-0.4766534542,-0.3158104594,-0.7243483606,0.6217087295,-0.3789698693,0.8141541324,-0.4950330687,-0.7180651402,-0.7247235873,-0.2897396623,-0.34364909,-0.8512245976,0.9286398236,0.2933374159,-0.9718266128,0.5695386787,0.1548021032,0.7197847428,-0.9355506772,-0.8674394442,0.4471808476,0.3217146121,-0.40411557,-0.1972103779,-0.9590035962,0.4695558896,-0.5124312513,-0.518696949,-0.7900980993,-0.8859789899,0.8710474087,-0.943760508,-0.2133349722,-0.3097029166,0.6598847778,-0.3684047935,0.0482813463,0.259981451,-0.4989447296,-0.510220372,-0.7383698817,-0.3554639861,-0.783168278,-0.1754464931,0.2767350121,-0.0525003779,-0.9803833274,0.9008183884,-1.0049070495,0.4146435885,-0.0809955327,-0.9317066586,-0.6044135714,-0.8729027133,-0.860960188,-0.618742983,0.3992566683,0.4552724105,0.5368207267,0.7780535526,-0.0799589679,-0.2260102502,0.6807411086,-0.9797444721,0.5211053912,-0.5060521111,0.6649445863,0.4730925927,-0.4978598938,-0.3304734539,-0.2969857274,0.3963420007,-0.4089654927,-0.1621715058,-0.4305472094,0.2870402222,0.5919227652,0.274417278,-0.0929513034,0.0594833819,0.4482347658,0.1333082674,-0.9955639207,0.2730857334,-0.080521598,-0.641745414,0.6976348699,-0.1620566942,0.5026083788,-0.7828110523,0.1662037978,-0.1883029756,0.5809614974,-0.7651770889,-0.1175687181,-0.3564356657,-0.7435255844,-0.2833280736,0.221641117,-0.5630917139,0.4800406733,-0.8111818541,0.4502695724,-0.5412944763,0.4074157964,-0.853996849,-0.1177758589,-0.671510201,-0.4796727442,0.7556094177,0.0694735489,0.6103941327,-0.9151546692,0.3541111946,-0.0880697647,0.3594722785,-0.5078355224,-0.9358290492,-0.0715403391,0.8258929065,-0.2901988891,-0.0426761463,-0.7032243147,-1.0001670088,-0.510191224,0.5234990205,-0.5542843361,-0.8514473203,-0.0176596862,-0.9858464134,0.5708751505,0.7375308585,0.009494159,0.1961051133,0.8210956785,0.5112314467,-0.6422374539,-0.7049953223,-0.9407004932,-0.5014139269,0.8641523314,-0.7903218519,-0.4879610362,-0.9928391487,0.5620307663,0.0816547189,-0.0111381737,-0.5499631229,-0.6424180198,0.8940586081,0.1848800547,-0.0996143536,-0.7509635619,-0.1197283617,-0.3845308736,-0.9992241814,0.7599185675,-0.3583172718,0.822475608,0.296040198,0.6647530049,0.328021212,0.3214882524,0.467516394,-0.6471380599,0.1885941207,-0.1686650415,-0.3519229546,0.9065655506,-0.7242625635,-0.9288129499,0.5656280061,-0.6826261615,0.5205203495,-0.647070223,0.1285175131,0.0253912023,0.5019779402,-0.7985903393,0.4830924481,-0.1505189906,-0.7732270215,0.5635249684,-0.5841687586,-0.5811295271,0.580299976,0.3409553916,-0.6370034738,0.6179593499,-0.6540414864,-0.5312726732,-0.3585881252,0.2944421056,0.5715835965,0.4508596553,0.071469243,-0.7893330959,0.4400911545,0.1619674388,0.500841859,-0.8633436147,-0.1117142322,-0.3351789959,0.5413863932,0.7199452149,0.3940559688,0.5319476982,-0.8703482899,-0.0706866819,0.0048598992,0.435996235,0.6263098362,0.0264004103,0.2754868742,0.4654249934,-0.3941406134,0.1396610774,0.4800047545,-0.0250855046,-0.325429094,0.3751075341,-0.9618357325,-0.416165962,-0.6589304581,-0.0569803735,-0.1302292214,-0.2963568761,-0.7442002474,0.0558986484,0.4664534524,-0.157386612,-0.1301701471,-0.646647904,-0.1164877549,-0.7043497003,0.7207156391,-0.9291999164,-0.4095633276,0.5445311867,0.3516913885,0.7304029389,-0.1288001919,0.7826144064,-0.227181361,-0.0222820204,-0.2993259487,0.8387597793,-0.0155538744,-0.8290404404,-0.7847770371,-0.6804405397,0.8709974895,-0.3507011099,0.6744121313,0.9268807862,0.6967972091,-0.7932559174,-0.6074058648,-0.1011692563,0.7644895026,0.7563348223,0.491288835,-0.5075352431,0.1137827413,0.6871326014,-0.4281727418,0.1971719485,-0.5721556437,-0.8168773173,-0.0203088304,0.0432008831,0.4562006642,0.8224512274,1.082375036,0.748986687,-0.2386990101,0.6126080911,0.0772837567,-0.3722721601,0.942011301,0.172268357,-0.438962041,-0.1310264469,-0.048954264,0.6446153224,-0.173551495,0.606227962,-0.3369309758,0.8535032278,0.0327642987,-0.5724705481,0.4665847473,-0.2315187999,0.4310796789,-0.7156457889,0.9581228505,-0.1134697648,0.2369927843,1.2481950618,0.361860967,-0.9311306204,0.6015692101,0.0896241821,0.8286511463,-0.852627406,-0.1690631638,0.3294298404,-0.4063590314,-0.2064227166,-0.9031800195,-0.6699708891,-0.003686435,0.2315379045,0.2099109608,-0.0145499195,0.6800446112,0.0431633526,-0.4104437941,0.1706934656,-0.4722255696,-0.9228013164,-0.7587653461,0.3514961628,-1.0268002206,0.6995302379,-0.6558609039,0.6032742343,-0.8826877467,-0.8991957179,0.3251143132,-0.1610485202,-0.9971092206,-0.7912222585,-0.7578025205,-0.711184889,-0.5001010581,0.616256293,0.7269471672,-0.8480742894,-0.5609375326,-0.1369221073,-0.0820367554,0.2024873889,0.1177949127,0.0746873372,0.2242280728,0.4152823855,0.8473506718,-0.1204916322,-0.1786351296,-0.7253275768,-0.5753258224,-0.8214924159,-0.1594509372,-0.8619338505,-0.866005506,-0.2414005537,0.7551014616,0.8592743814,0.6646360149,0.3383582096,0.6354590224,-0.1986196633,0.778843815,0.1951171517,-0.2081112315,0.03228745,0.636839779,0.8104665416,-0.3111523964,-0.7500481224,0.7084093315,-0.7827302765,1.0599113944,-0.8495654064,0.4904610946,0.0587570415,-0.1088372568,-0.2743722917,-0.8156200577,0.0461652124,0.3726801232,0.7779879621,-0.9681979262,-0.691830116,0.1837370592,-0.6119522106,-0.2651379882,0.78908948,0.1813694068,-0.514484932,-0.4131027487,-0.0229290076,0.6725923406,0.388794265,0.6924673925,0.1669450652,0.255566588,-0.2060435383,0.4404312902,0.5971575932,-0.221251687,-0.4705554302,-0.2163069334,0.2810984834,-0.4618782278,0.4970748378,-0.2004099992,0.3249586184,0.6349684353,0.7839962416,-0.7904699676,0.5233367138,-0.4299623405,0.273858225,-0.408997973,0.4389411098,-0.7305941897,0.349178464,-0.5807425371,0.363250814,0.9594362506,-0.8096799748,0.6135851579,0.0514144997,-0.8552153918,-0.6650870426,-0.1041592546,-0.0461175394,0.0297653919,-0.0268853837,-0.6990505568,-0.0342746703,-0.2016169735,-0.6562126317,-0.3506643069,0.1694759315,-0.1009675755,0.6665661331,0.31575648,0.2857010614,0.6802161341,-0.541469312,0.7793904509,-0.3553278382,0.2634118363,-0.1324340852,0.3249536458,1.1426786372,-0.6044283265,0.5176437204,-0.1570665592,0.5313050945,-0.0749309321,-0.8239415692,-0.1567830285,-0.4821388254,0.838648816,-0.9300730728,0.3153107412,0.1166183444,0.6404176219,-0.1290387769,0.3680464934,0.5529533053,-0.0418795835,0.8438414028,0.4052308041,0.2879338233,-0.2936146974,-0.0761276806,0.9054625215,-0.790870798,-0.6937241679,-0.6177282693,0.2692550022,-0.5015112689,-0.652916596,0.4548912491,0.6885424276,0.3147934199,0.4821925859,0.3319883307,-0.931450028,-0.7706943059,0.5348230981,0.953304363,-0.9789065266,-0.3374313904,-0.449000237,-0.3112754589,-0.0961208154,-0.0455361882,0.1056121539,0.508660276,0.5157455935,0.5049288229,-0.0176130232,0.2897748519,-0.1652599192,-0.2577976647,0.0851531332,0.6784550837,0.3269624014,-0.9493862851,-0.2654858651,-0.1973615005,-0.011419935,-0.8029738724,0.6040266447,0.4050525418,-0.1102134182,-0.4594540132,0.1043169588,-0.7723472704,-0.3512426871,-0.4167505316,-0.8645264536,0.8594142714,-0.9723000937,-0.9161881024,-0.2121988727,-0.9644424969,-0.2297083085,0.4115178749,-0.5248136563,0.0377347734,-0.2391321802,-0.9203139009,0.051889035,-0.9879475411,0.2783448667,-0.1238592788,0.4739048256,-0.2450725133,-0.8115481588,0.0326513486,-0.240813843,-0.6763865977,0.6693467241,-0.3040300509,0.4020277922,0.6712478112,-0.8291271115,-0.2147293634,-0.1055492005,-0.326015209,0.5611046926,-0.1977906326,-0.7657876483,-0.6832931712,1.0250494405,0.2133017068,0.3246582714,-0.7658592884,0.8624454579,-0.4507460148,0.0149322695,-0.3975803723,-0.3399156659,0.5517894706,-0.5701196396,-0.6800487268,-0.7055564434,-0.8339919108,0.0675275111,-0.4429898788,-0.61760652,-0.8999446862,0.0469212962,-0.895998123,-0.7025854679,0.0491069841,0.0049041026,-0.0147664761,0.1316823561,0.8154448378,-0.4302687255,0.6667909035,-0.6907444842,0.383543631,0.5245813354,-0.3027933155,0.7545836897,-0.3035732704,0.7558900362,0.7678936337,-0.9650418214,-0.0096802156,-0.036841339,0.8509170646,-0.7532556393,0.0376218658,-0.8638668239,-0.2933265781,-0.4957051746,-0.8071724346,-0.7704740711,-0.563409035,0.3577071785,-0.1824386965,-0.3541981299,0.0011917799,0.8003873638,0.7140534105,-0.939799733,0.2652365225,-0.8876896299,0.0512561856,-0.7417205018,-0.7700220013,-0.7183982966,0.7836824873,-0.2690625399,-0.188964923,0.2664657995,0.7346492201,-0.3721125109,-0.6695840416,0.7110223322,0.7223840807,0.6947799908,0.6869631634,-0.1021936255,0.4061390724,-0.0964201263,-0.4395377349,0.1561110133,-0.1805386824,0.2044776635,-0.4197286812,-0.7856367567,0.2812157004,0.7859544397,0.0347031389,0.9161665343,0.3414046648,0.616187255,-0.8093874211,-0.059870833,-0.5750742394,0.8724142162,0.3422964932,0.3706024729,0.7189996093,-0.5034431963,-0.8209843199,-0.470441859,-0.7683883552
biasActivation=1,1,1
[BASIC:ACTIVATION]
"org.encog.engine.network.activation.ActivationReLU",0,0
"org.encog.engine.network.activation.ActivationReLU",0,0
"org.encog.engine.network.activation.ActivationReLU",0,0
