encog,BasicNetwork,java,3.4.1,1,1523127074265
[BASIC]
[BASIC:PARAMS]
[BASIC:NETWORK]
beginTraining=0
connectionLimit=0
contextTargetOffset=0,0,0
contextTargetSize=0,0,0
endTraining=2
hasContext=f
inputCount=210
layerCounts=211,7,211
layerFeedCounts=210,6,210
layerContextCount=0,0,0
layerIndex=0,211,218
output=3.1888685807,2.0754498582,0,0,0,1.5538824433,0,0.6891505702,1.6734031543,0,2.0408290058,0,2.8230958858,0,0.4678424103,0.7594344249,2.3860452876,1.0587719325,0,0,0,0,0,0,3.1010659449,0,1.3238649912,2.8764894282,0,1.90864527,0.2064511096,1.9399707841,0,0.076955773,4.1484322201,0,2.7454075711,0,0.5078536036,0,1.0204278931,2.5558704408,0,0,0,0.3057027683,0.0826670801,1.240046128,0,0,0,2.56898738,3.3493944822,1.0683517659,2.6435492553,1.0870960884,0.1825482044,2.6232484481,0.7630288264,0.9172157198,0,0.2273046484,1.035223929,3.1461418398,1.3642216943,0,0,0,0,0.1724393039,0,1.0521340028,0,2.8715818484,0,0.1065096365,1.0565781611,0.7674536046,3.7867971745,0,3.1603439508,1.285035959,0,1.1413607255,3.1020252767,0,2.5824700084,0.5584533136,0,0,2.1183291659,0,0.7550817164,0,0,0,0.7742348639,0,0,2.0384448081,0.4895588042,0.3430621467,3.0540878615,0.7646406799,1.2970974913,0,0,0.1886935399,0,0.5037021103,0.3046038233,0,0,0,0,0,0,0,0.2473063742,0,0,0,1.275392314,0,0.7031539817,0,0,0,0,0.5440661288,0,2.6609850632,1.1402423433,3.2721256855,0.6551648742,0,1.0319054357,2.0069463906,1.37260485,0,0,2.3335770546,2.1435064238,0.1424157218,1.8205195247,0,0.4503959641,0,3.9666342702,0,0,0,1.587811195,2.4405756403,0,0.567110628,0,3.1932730968,0,0,1.4451081415,1.2613234495,1.5850510563,2.657092953,0,0,1.002037878,0.890385658,0,0.4987295849,0,0,0,0,0,2.8276010379,0,0,1.9513838335,1.1879692352,1.9453013542,1.3531883926,0.4237019268,2.887671341,3.5757716118,0,1.2277809883,0,0,3.1081997547,0,0,0,2.225000557,0,0,1.2473038623,0.1559349639,0,0,1.0559139669,0,1.6251686555,0,3.3134256317,1.3592580575,0,0.4375842195,0.6142668574,0,1,1.7323242665,0,0,2.6181302748,0,0,1,0.7777777778,0.6666666667,0.6666666667,0.6666666667,0.5555555556,0.3333333333,0.2222222222,0.4444444444,0.4444444444,0.5555555556,0.8888888889,0.7777777778,0.7777777778,0.6666666667,0.6666666667,0.4444444444,0.4444444444,0.5555555556,0.6666666667,0.7777777778,1,0.7777777778,0.6666666667,0.4444444444,0.5555555556,0.5555555556,0.5555555556,0.5555555556,0.6666666667,0.8888888889,0.8888888889,0.6666666667,0.5555555556,0.4444444444,0.5555555556,0.4444444444,0.4444444444,0.3333333333,0.5555555556,0.7777777778,0.6666666667,0.4444444444,0.3333333333,0.3333333333,0.5555555556,0.5555555556,0.4444444444,0.2222222222,0.4444444444,0.6666666667,0.5555555556,0.3333333333,0.2222222222,0.4444444444,0.6666666667,0.5555555556,0.4444444444,0.2222222222,0.4444444444,0.4444444444,0.5555555556,0.3333333333,0.2222222222,0.3333333333,0.5555555556,0.5555555556,0.6666666667,0.4444444444,0.5555555556,0.4444444444,0.6666666667,0.4444444444,0.2222222222,0.4444444444,0.4444444444,0.4444444444,0.5555555556,0.5555555556,0.5555555556,0.3333333333,0.4444444444,0.4444444444,0.3333333333,0.4444444444,0.3333333333,0.3333333333,0.4444444444,0.5555555556,0.5555555556,0.4444444444,0.3333333333,0.4444444444,0.3333333333,0.4444444444,0.3333333333,0.3333333333,0.3333333333,0.5555555556,0.5555555556,0.3333333333,0.2222222222,0.4444444444,0.4444444444,0.3333333333,0.2222222222,0.3333333333,0.3333333333,0.5555555556,0.5555555556,0.5555555556,0.2222222222,0.4444444444,0.4444444444,0.3333333333,0.2222222222,0.4444444444,0.5555555556,0.6666666667,0.6666666667,0.6666666667,0.1111111111,0.4444444444,0.4444444444,0.4444444444,0.1111111111,0.3333333333,0.3333333333,0.4444444444,0.4444444444,0.5555555556,0.1111111111,0.4444444444,0.4444444444,0.5555555556,0.2222222222,0.4444444444,0.4444444444,0.5555555556,0.5555555556,0.5555555556,0.3333333333,0.4444444444,0.3333333333,0.5555555556,0.3333333333,0.4444444444,0.2222222222,0.4444444444,0.5555555556,0.6666666667,0.6666666667,0.6666666667,0.5555555556,0.6666666667,0.4444444444,0.4444444444,0.3333333333,0.6666666667,0.7777777778,0.7777777778,0.8888888889,0.7777777778,0.5555555556,0.6666666667,0.4444444444,0.3333333333,0.1111111111,0.4444444444,0.5555555556,0.5555555556,1,1,0.8888888889,0.7777777778,0.5555555556,0.4444444444,0.4444444444,0.5555555556,0.4444444444,0.2222222222,0.6666666667,0.7777777778,0.6666666667,0.5555555556,0.4444444444,0.5555555556,0.6666666667,0.6666666667,0.4444444444,0.2222222222,0.3333333333,0.4444444444,0.4444444444,0.3333333333,0.3333333333,0.4444444444,0.6666666667,0.5555555556,0.3333333333,0.1111111111,0,0.1111111111,0.1111111111,0.1111111111,0.1111111111,0.2222222222,0.3333333333,0.3333333333,0.2222222222,0.1111111111,1
outputCount=210
weightIndex=0,1470,2736
weights=##0
##double#2736
   0.8235568445,0.1083203895,0.1710473501,0.3852017216,-0.9738877461,-0.5745165595,0.5043901848,-0.3332047762,-0.8920177645,0.2321270759,0.6340311451,0.7415854989,-0.6329960949,0.5092356758,0.108867082,0.6310521193,-0.3141339816,-0.9615381334,-0.2360282394,0.0744299428,0.4902308705,0.7578666015,-0.4425690869,-0.2362977343,-0.9212954453,0.5550669107,0.8884354691,-0.6824643723,0.4806266807,0.5889753573,-0.7886023848,-0.867202638,0.4204030332,-0.3624923648,0.5071088159,-0.0245288572,0.1172797536,-0.3102954109,0.2366969696,0.0604428279,0.5351867118,0.5073842179,0.7744321172,-0.7500623582,0.0241170365,-0.9734246807,-0.8289485845,0.4374872048,-0.978748268,0.2111188561,0.7746607425,-0.9958994343,-0.1847980701,0.396768693,-0.8536208074,0.5051929196,-0.8996321548,-0.781667538,-0.7247491555,0.8687516938,-0.1600866875,0.4811373177,0.5081428843,0.5669671074,-0.9215894111,-0.4841408155,-0.4149528815,-0.5227536892,0.04970638,-0.5480072415,0.5457729167,-0.6173845696,0.0705675043,0.1428582372,0.7899456622,0.9033029096,0.5033150126,0.2020392176,0.6720711375,0.7798847556,-0.5071570838,0.9547043798,-0.153455333,-0.9897192427,0.5161393285,-0.8743808059,0.2960146407,0.4609515311,-0.0815936239,-0.214602554,0.5040115903,-0.4724446079,-0.4511965676,-0.9725098072,0.1730797122,-0.6149466313,-0.2133500213,-0.2294243071,0.639608976,-0.3539159887,-0.986826623,-0.0244177983,-0.1618877082,-0.9436828647,-0.5800602979,0.2009223571,-0.5963324552,-0.6186753867,0.1313010657,0.5106403111,0.6651663008,0.4915809768,0.0471709233,0.1438581858,0.9212085293,0.9535475066,-0.2490645459,0.4244564394,-0.2168420234,-0.2986616739,-0.2912546883,0.0262883625,0.8772041323,0.5846601661,-0.4156183785,-0.7275717504,0.4651897174,0.1679767839,-0.231407796,-0.111450432,-0.9905790223,0.8607292764,-0.8552600955,0.8197640108,-0.0140818904,-0.5208629208,-0.8632202142,-0.6164065662,-0.9428765211,-0.327248388,-0.0261673555,0.6150828853,0.0836046533,-0.7460747832,-0.3743210908,0.1811055436,-0.778859368,-0.0100658293,0.3480435874,-0.1125724417,-0.1487962257,0.3124540702,0.9429870321,-0.5638292522,-0.7756841579,0.6164244856,-0.0304284912,0.4980547329,0.4111423408,0.4789120782,-0.3550075341,-0.324831531,0.8921689819,0.0987330977,-0.2653389067,0.3790962024,0.438221222,0.4911180093,0.1410656165,0.2837673473,-0.5790504315,0.7333238613,0.0024410177,-0.8889010614,0.5076806216,0.2041931811,0.5268393001,0.5411641289,-0.3809009954,-0.0634311855,-0.0815382967,-0.9513268349,0.0795309366,-0.7296971793,0.0479417621,0.373080743,0.388289827,0.6327201275,0.4945439712,0.69168574,0.9131588682,0.016363427,0.6230918148,-0.3768646027,0.6907679735,0.4905360735,-0.2152572245,0.7784774878,0.1171669881,0.1404036477,-0.5894225099,-0.7640082772,-0.1837471951,0.8686682754,0.3254144541,-0.7294727995,0.2840238427,-0.1851739815,0.8423904464,-0.3618903957,-0.8039457827,0.1168062659,0.0196040379,0.3046170821,0.5790402798,0.5563218898,0.5045357067,0.3011575211,-0.2486224832,-0.8452866234,0.9184697044,0.8471784977,-0.7808921973,-1.0008536418,-0.0710446207,-0.8650612599,-0.4891636409,-0.4919675785,0.9743470646,0.6940874461,-0.8587492406,-0.1020438752,-0.691631038,0.028081062,-0.0454138665,0.0225323914,-0.7294633155,0.4979434258,0.8143060527,0.5009054327,0.9487870386,0.8110127956,-0.8201920732,0.8262091081,0.4999874615,-0.2355992742,-0.330959773,0.1370999912,-0.9451812192,0.046747512,0.4608590728,0.4964581795,0.6457003786,-0.5833102772,-0.0060872992,0.2335671255,0.6213075371,-0.8942871736,0.5085752186,-0.5914159768,0.1996928209,0.7728197461,-0.5776927597,-0.1927759236,-0.4542168952,-0.9381356431,0.5863827824,0.5908858628,0.8371940631,-0.548723798,-0.9626449412,-0.4966801807,0.5074305769,0.1838508323,-0.4135122355,0.5072443974,-0.9746569426,0.9731800335,-0.1342832597,-0.2725816409,0.0420209132,0.0667877866,0.3402693248,0.4477345534,-0.8105375081,0.545414622,-0.2286769344,0.2004367677,-0.8253831235,-0.3103492718,0.8782766493,-0.4214340953,0.7137591857,-0.112604453,0.8159658497,0.3309852626,0.9998442114,-0.4020370385,-0.6652466302,-0.443739575,-0.5739148578,-0.5139566233,0.1754187747,-0.963151157,0.0727751096,0.1260541057,-0.4122505054,0.5005877141,0.1453120818,0.3107532046,-0.4344678817,-0.2895039908,0.3337247116,-0.0915193004,-0.9254497838,-0.1649852014,-0.4710382291,-0.6188141871,0.5637323759,-0.0176215459,-0.996652349,-0.8846005229,0.3058281219,-0.6247014543,0.2769026112,-0.1874517514,-0.5737492169,0.0424944723,0.4916736757,0.0716379696,-0.3545157352,-0.0862208675,0.2850748807,0.1174044643,0.6497439661,0.4972844333,0.1765840422,-0.1114127088,-0.8015132847,-0.0816949287,0.0737810061,0.219413038,-0.6173617539,-0.4019156554,0.2167444715,-0.2490718924,0.2598835222,0.1402274028,-0.3732246196,-0.4366950671,-0.3067701866,-0.2538376591,0.2131409536,-0.4361356519,0.5564496118,0.2877731974,-0.6659163512,-0.1087175203,0.1438671641,0.529462395,0.8028659758,0.3354509465,-0.793459087,0.5015150834,0.4667589237,-0.6630983579,-0.4791477885,0.8742909582,0.9614537589,0.912272846,0.4938331863,0.0402859659,-0.6303555725,0.5946237511,0.2166934376,-0.6002427278,-0.6729117615,0.4984784013,-0.4260021002,-0.0406050927,0.5399795566,0.9075734948,0.3919594604,-0.2180953085,0.5081713365,-0.8306078368,0.2425172375,-0.808636274,0.9734732968,-0.9771609454,-0.6385967847,-0.0311105927,0.9372498308,0.2865871525,-0.4473657801,-0.8291757012,0.2991812893,0.4944369775,0.5031558847,0.0635118246,-0.1131727672,0.5514272378,0.7051833423,0.8252144457,0.5186369578,0.5016531115,-0.9837013904,0.470561503,0.8778131322,0.8784488369,0.6805542991,-0.8473937238,0.492997976,0.0807005041,-0.2070024732,0.7221586625,0.5725090771,0.5986840121,-0.7143842886,-0.7252070965,-0.0552755427,0.5139337204,0.3263684649,-0.3971586685,0.8496285734,-0.2223092472,0.5078683967,-0.510622814,-0.9867949118,0.9085149181,0.6868825453,-0.7458365538,-0.072695906,-0.6875431302,-0.4849412041,-0.4552792813,-0.7210955077,0.4980266452,-0.3368017157,-0.3719343341,0.5010580605,0.9565803968,0.3262241652,-0.4191700257,0.2351828439,0.0202817758,-0.015853685,0.5054241548,0.7392099185,0.5932649358,-0.2069615121,0.2144971072,0.9626247034,-0.4745374431,-0.4893616567,0.9157884643,0.7751384305,0.2083470831,-0.9525636223,-0.2349831127,0.6728683729,0.5030906345,0.3967993663,0.9846208036,-0.3693887327,-0.6052733066,0.0828345474,0.928838181,-0.4607925586,-0.9153532611,-0.8031346447,-0.17038659,0.2617770296,0.7073267683,0.3030393976,0.5032158799,-0.7835177392,-0.9304035676,-0.0565279253,-0.0180800368,-0.1564264289,0.0811821587,-0.134341685,0.6975805113,-0.8361387009,0.4283871159,-0.6055794691,0.8402812762,-0.9618086585,0.5009816311,0.7673736498,-0.4164564564,-0.9814071538,-0.5119040285,0.5340716478,0.7505235943,-0.9289641017,-0.5377839797,-0.3388356342,0.7322631288,0.3821146511,0.3756129846,-0.7243926764,0.5080133706,-0.0818291684,-0.954406373,0.4799637561,-0.080733869,-0.1306675002,-0.7091489977,-0.1174042908,0.2825802375,-0.1781434307,-0.9258997011,0.5239507227,-0.1201893816,0.2911947082,0.5081611043,0.1106434187,-0.4618160048,-0.684088794,-0.8468318977,-0.0597402833,-0.0507998618,0.5060177683,-0.5297080675,0.1252543337,0.0452441609,0.1011630737,0.6242829303,-0.2689357928,0.5045439787,-0.6074358451,0.7188938997,0.8877572129,0.8624663474,0.4174069389,-0.457276472,-0.1549718618,0.4387076533,0.8882817795,-0.2952267137,0.2739924411,-0.7560782161,0.9940285657,-0.7160952476,0.8194709084,0.8904809112,-0.7632116774,0.910739065,0.3094199425,0.4248230361,-0.0594845462,-0.793266462,0.1034097725,-0.7389938778,-0.4736880827,-0.4026172437,0.639344116,0.5044182486,0.9750623616,-0.4657524654,-0.2755197954,0.3263824985,0.6414836184,0.2765509626,0.500786583,0.2738052973,-0.4003462767,0.9929200969,0.6327515709,-0.1609050927,-0.8888406821,-0.8526478385,-0.3975790312,-0.5548379283,0.326865196,-0.9632290621,-0.470954246,-0.7968146671,0.5052479478,-0.5999477778,0.1743309099,0.663880172,0.5552977929,0.3617461406,-0.3745251595,0.5036997732,-0.1364229286,0.9052766546,0.6220989064,0.9485743041,-0.9284100096,0.1406132588,0.5053349024,-0.1700314919,0.2893667751,0.4971940149,0.0704167358,-0.7399354151,-0.3282802727,-0.0341844765,0.6825714788,0.6629411328,-0.240105514,0.5392440531,-0.0734369936,0.2962192032,-0.0328407289,-0.8435083695,-0.4348808569,-0.8969399475,0.4040886311,-0.3481950377,0.0581699244,0.5091402535,-0.2255832699,-0.7168321146,-0.6285685807,-0.9339384282,-0.4036299663,-0.2806902403,-0.2799501723,-0.9297193246,-0.9819836124,-0.8920489024,0.0783551132,-0.5187507956,-0.573536407,-0.2010101132,0.2215343221,0.8303846988,0.9248327753,0.4769164633,0.1726442289,0.1082926727,0.4989368913,-0.6729361385,-0.9040952227,-0.0208560336,-0.9718901879,-0.6343073368,-0.5316158336,0.5082636946,0.7977895094,0.2926926526,0.8712905322,-0.2049650704,-0.1765707953,-0.7748876776,-0.0967145844,0.0504395026,-0.8168286375,0.4896080359,-0.5762598752,0.2025316615,-0.334536508,0.5059201327,-0.7860951201,0.8112677872,-0.1080879262,-0.8246541686,0.3617816049,0.183737169,-0.4656467908,-0.2531334192,-0.3449320471,-0.8701762962,-0.117628213,-0.6077973072,-0.7178582294,-0.1553470729,0.7768113048,-0.7594918206,-0.3379371565,-0.5863565076,0.4659100558,0.7033291143,0.5074029526,-0.5646871288,-0.2139769322,0.8563438452,-0.5332264026,0.0810348376,-0.4238120724,0.5076342996,0.0006067839,-0.0614915657,0.6557140642,-0.4988028026,-0.8894543583,-0.9130606025,0.4989441096,0.7691409603,-0.5565619211,-0.6047749503,0.0492498008,-0.2514941369,-0.8806644321,0.5011579271,-0.0321519612,-0.3972604921,0.5154653586,0.2815433756,-0.8882096069,0.4105400123,-0.1909565195,-0.0267562258,-0.6727386586,0.6840269528,-0.0580962099,0.68145463,0.1002277696,0.5003140621,0.0701428576,0.0691587987,-0.6846903451,0.7735879056,0.5338206902,0.6125152056,0.505919945,0.7569217209,0.4336545971,-0.4600408547,-0.31708087,0.0221399104,-0.1275470241,0.4953714249,-0.2193402599,-0.8669297979,-0.2289885972,0.3618732485,-0.4957630844,-0.5728065065,0.5043041174,-0.5508995314,0.9465560272,0.7867186219,-0.7411977349,0.1835768952,0.0062532844,0.4970006054,0.3341313945,-0.1600379829,-0.4877084259,-0.6381918993,0.6783807204,0.6020485855,0.4938198658,0.8970142603,0.1959800255,0.0937677351,-0.2949003744,-0.5987954111,0.1676741308,-0.5983067335,-0.7036931528,-0.3749893902,0.1494506532,-0.0787878174,0.4407367026,-0.2866038396,0.5083432993,0.2333583277,0.7822029075,0.9403817925,0.2846609735,-0.6685599654,-0.2376594079,-0.646856811,0.7406488121,-0.1970643805,0.9279505426,-0.1807266733,0.9204789082,-0.9460424431,-0.5105126088,-0.1651369141,-0.6554046574,0.3298962169,0.105390644,0.5663562821,0.4629340062,-0.9290501626,-0.2503504873,0.7451131129,-0.2902691158,-0.834443553,-0.1336652129,0.2408404018,-0.9375168954,0.8569216651,-0.5060327472,0.90529452,-0.4734131667,0.5258931781,-0.6502195739,-0.427637591,-0.5619915747,0.0085765036,0.1611732494,-0.0208161464,-0.7247146303,0.0581549847,0.5028840565,-0.5421917951,0.3134311323,-0.9030520658,-0.7571440013,0.1192736354,0.2759065653,0.5079085823,0.989582806,-0.7002815361,0.008019835,-0.6558243266,-0.5936954923,-0.6101975087,-0.9396584869,-0.4487801899,-0.7053141042,-0.8340644537,-0.79257984,0.5806969948,-0.7152859894,0.4946692607,-0.3396023115,0.2568402544,-0.9727862381,0.1967920704,-0.5990458491,0.9585524296,0.4960298741,-0.3977863605,0.1315225693,-0.7119429807,0.1780648604,0.0123882585,0.0829278344,-0.7681688556,0.1113380196,0.3236599105,0.2264123141,-0.9970438022,-0.3638209452,0.5464516223,0.5033560619,-0.9170896869,-0.6010507707,-0.8218368453,-0.0755251819,0.5581222413,0.1572405762,-0.2759725951,0.2376379258,-0.5951685569,-0.993100904,0.5687645075,-0.4660657436,0.2025054252,-0.6330465914,0.1948160534,-0.2889765279,-0.5050949331,-0.3137829992,-0.8918432475,0.7796209296,-0.8662114434,-0.2628130637,0.3214494828,-0.5134112014,0.2617025923,-0.8319824669,0.2331117236,0.4991316111,0.2587216493,-0.511690154,-0.1132361467,-0.1375502146,-0.3336433946,-0.6985862595,-0.8988237752,-0.4374492296,0.9288714148,-0.7085355199,-0.3545889903,-0.4162510022,0.2714679718,0.5058729857,-0.4803838578,-0.0689356666,0.2002387741,-0.256782718,0.0143923014,-0.717224927,0.5028856687,-0.871677056,0.9172356478,0.0509856053,-0.312466623,0.6833212867,0.3253835007,-0.7429877,-0.7931844755,-0.9269823712,-0.9879668143,0.9312664977,0.9715942757,-0.07802013,-0.5260282373,0.4777771523,0.2626885269,-0.4878242904,-0.9186407026,0.8987829536,0.9670611308,-0.5915993426,0.110014507,-0.1823235102,-0.8362291812,0.7073534766,0.1774005622,0.1590208128,0.5018050268,0.2307161957,0.1717840551,0.903784651,0.3843344083,0.6487091575,-0.9301778646,-0.268491213,0.3864187216,0.7662196119,0.3547953489,0.9156179927,-0.0397274381,0.1665595372,0.4923404533,0.594242253,-0.9283003934,0.1372313495,-0.3163080433,-0.0215260347,0.5592257197,0.4980456399,-0.6963186774,0.3317892728,0.3581090991,0.5648383513,0.563115721,0.607433234,-0.8305517308,-0.5140763389,0.1214477078,0.79991364,0.719154989,-0.4572665427,-0.4317020776,0.4909639634,0.4496985328,-0.2533912232,0.6061480529,0.107306332,0.4878203201,-0.5283796422,0.5073942776,0.050588487,-0.6236813791,0.6550928449,0.7993137599,0.8803346304,-0.300554293,-0.8171575513,0.6922165271,-0.6830703227,0.0274244722,-0.895130872,0.424845574,0.7920184928,0.5028882341,-0.7430500644,0.1885091236,-0.8414531252,-0.3135597273,-0.1074110892,-0.1241159436,0.5081937391,0.3250664831,0.5236724891,-0.2289761039,0.6204992431,0.1135341969,0.0884501285,0.4933455667,0.8976161528,-0.8979576922,-0.0091043074,-0.0587008366,0.2699669758,-0.5915464728,0.5035006033,0.5195530632,0.366890712,0.8940467005,-0.2179617401,-0.1489157671,-0.5928417579,-0.18473653,0.6401077741,-0.5670746609,0.6919639701,0.3206723581,-0.6907443525,0.0042786484,-0.1382348571,-0.907272994,-0.3896110038,0.1445255654,-0.3323831884,-0.1117783321,0.8723526728,-0.7434999473,0.1402423225,-0.6829929812,-0.4555895493,0.1648866249,0.8950200652,0.1417384023,-0.2228362175,-0.7094319979,0.2689861704,-0.9323306926,-0.1767404783,-0.9109967645,-0.3315658558,-0.8116006395,0.3880743679,0.8988619004,0.1814384896,0.8953916065,0.5447322618,-0.3606674081,0.5068301872,0.7773302308,0.9797565655,0.6802601641,-0.8685591901,-0.7916250514,0.6824622761,-0.4696062436,-0.2177289104,0.6775169642,-0.1410313748,-0.9826076661,0.4630136955,0.7754625507,0.4953295318,0.8642040148,0.9372552778,-0.5409762375,-0.4974761533,-0.8120129462,0.0205544569,-0.9280160233,0.7565083406,-0.4491943313,-0.815247086,-0.2601115248,0.8278988921,-0.4960184035,0.5077334096,0.4853526921,-0.2352078921,0.5713227379,0.5636938209,-0.8722416713,0.1347538042,0.4914513139,-0.2170802644,0.7241120234,-0.5159195415,0.1185565441,0.7868573527,0.665016389,-0.3315177227,-0.4107790172,-0.8420130975,-0.7175352637,0.3450012751,-0.0350290649,0.5620071338,0.4970009503,-0.857117911,0.5421300748,-0.0706739277,-0.6900678531,0.3199265481,-0.4962178362,-0.4045580018,0.4389502994,-0.7182051327,0.859718515,0.9481504279,0.731393873,0.8079421417,-0.0831529936,-0.9548184862,-0.3999601154,-0.7365480822,-0.2068393766,-0.5295413442,-0.0651803862,0.4990281479,-0.9351698433,0.8945671735,0.5196373556,-0.793616054,0.264256814,-0.3648720089,-0.4435700487,0.1733512477,-0.8908943497,0.3422489296,0.1975724078,0.6034998936,-0.0608905491,0.5023847551,-0.2516034364,-0.8036243537,0.1933397359,0.650233674,0.1252743184,-0.4237465675,-0.0081752358,-0.8396801008,0.1885168762,-0.5920927009,0.8436941336,0.0985534182,0.0139370352,0.5056663219,0.2994629199,-0.5049531767,0.4920082258,0.683826846,-0.5643576412,-0.5597215391,0.4962173451,-0.0901582762,0.532974791,-0.4103316012,0.0352238529,0.2714880392,0.6378027196,-0.7724713024,0.9812053728,-0.7932938561,-0.506451169,-0.7535460894,-0.0024894277,0.1907700355,0.4926594272,0.0642548975,0.0108223994,0.0935171765,0.71138165,-0.9765443802,-0.4747420649,-0.9764732639,-0.7136120238,0.0397679802,-0.1955764492,0.4450076496,0.8135770625,0.3614290165,0.5080901477,0.3793897135,-0.7095334027,-0.3698316902,-0.8573623092,-0.5467880752,-0.0657621876,-0.5176804145,-0.2619253478,0.6428366695,-0.1612842384,0.1489066702,-0.1198632937,-0.5075378736,0.5008354918,0.4646725493,-0.4769230017,0.1116946374,-0.9710871471,0.4267719708,0.437170979,-0.4893167647,0.2606254021,-0.3411859047,-0.2178621015,-0.8496032153,-0.7293997306,-0.1048671567,0.4943926875,-0.1932868422,0.8343651831,0.0447300572,0.1145961544,0.9214898161,0.88501959,-0.6572355909,0.7605213113,-0.1972799491,-0.8869641238,-0.6568720802,-0.7513673374,0.5425865529,-0.842687989,0.7681426604,-0.761785855,0.8503294846,-0.9204208569,0.2779824738,-0.7479626915,-0.7089863133,0.3718246705,0.6016198628,0.867873528,0.617328191,-0.6444996223,0.4221608634,0.4998326892,-0.5335561249,0.7231762041,-0.5608579146,-0.4320606409,-0.5550917219,0.3597953726,0.5018283927,0.7558883264,0.0941652098,-0.2030996354,-0.9872289625,-0.5840522042,0.9933641091,0.4970489006,-0.0140765355,-0.2647555278,-0.8966802417,0.7468850221,-0.6081829485,-0.0808025515,0.4911347713,-0.8320469331,0.5226417978,0.8025953712,0.7829602623,-0.0208149532,0.3399919731,0.5010107115,0.6097048225,0.6647478971,-0.9151296528,0.2678340571,-0.9809629343,-0.2545787632,0.4940928489,-0.2189074796,-0.2766305583,0.9573760553,0.934850494,-0.0328927386,0.4408754638,-0.7253174256,0.494861277,0.8193114655,0.9914068344,-0.1600066165,-0.5604567231,-0.6936165846,-0.0182519309,0.5215276217,0.2144946539,0.4784166401,0.3969319284,-0.1739424523,-0.1015104127,0.5068120994,0.8735258422,-0.1038526539,-0.4573689373,0.9213243314,0.9112407141,0.059429911,-0.3895072928,-0.2050113924,0.538038943,0.8370802211,-0.5545955152,-0.1086485579,0.2192756194,-0.5295305415,0.9387506869,-0.5265964921,-0.6106415636,-0.1045404986,-0.2035065063,0.5277992853,-0.1380866698,0.5286500717,0.8571405546,0.8145965555,-0.4779330055,0.6703521361,0.2190868173,-0.6925797083,-0.565274329,0.4082967961,0.4164094068,0.3620024898,-0.9917521446,0.4098621777,-0.8362506773,0.4661088565,-0.0411363934,0.2986636356,0.9005379338,-0.7245807319,0.8475777196,-0.0852273276,-0.9864942925,-0.5094357468,-0.0400446905,0.1706571748,-0.2891816471,0.8750845045,0.3450829119,-0.6280639727,0.4825940532,-0.3916203948,0.0304047717,-0.2245023247,-0.6153745826,0.3439371538,-0.0592084042,0.8809014795,0.2056711829,-0.2771177171,0.1040933538,-0.7597843269,0.3384162274,0.0234759374,0.7309489746,0.5079613928,0.5731597026,-0.9162936208,0.016988696,0.3384330097,-0.3307080584,-0.9836522349,0.1838656435,-0.093817341,-0.9614014155,-0.9457833542,-0.6529923047,-0.7246061284,0.8262107333,-0.9317355771,-0.1568635803,-0.8680314814,0.9392375627,0.3296370614,-0.8328199378,0.4867453209,0.0490010808,0.7763414673,0.5882447721,0.7989450514,0.3384998295,-0.4998371365,-0.2379720862,-0.91358906,0.2077282884,-0.100795138,0.6590258223,0.3358290691,0.4870890271,0.2739370513,0.2059244487,-0.6276522092,0.0724099155,0.8687357095,-0.1785199045,-0.7836990033,-0.2933307924,-0.4470518399,0.0933945632,-0.799780184,-0.0327898882,-0.1013280536,-0.6985931891,-0.2500240802,-0.5168832996,0.9302633537,0.221804122,-0.7114216945,-0.1835804142,-0.8241184725,0.4946280241,0.5471431636,-0.7931532673,0.0624666859,0.2335947597,-0.5701439715,0.8373511836,-0.0726536639,0.2331390533,0.0928832237,-0.1306351211,0.087956265,-0.0953019972,0.5862802139,-0.1622216774,0.2717211884,-0.9400653787,0.0346470966,0.9343971755,0.1678178831,0.1229671158,-0.3688780033,-0.6661639295,0.9146534449,-0.1707777376,0.4469278032,0.1753470447,-0.8534831072,0.1520024557,-0.6565211384,0.8238537345,-0.238663914,-0.1567771096,0.1757498956,-0.6647322408,0.2521672235,-0.4252463127,0.5987567758,0.8243934739,0.6689211073,-0.920184861,0.5304535505,-0.687167309,-0.3571041158,-0.2067961937,-0.4897153572,0.0260116593,0.1644776525,-0.011541538,-0.1390748768,0.0227859013,-0.0992189322,-0.9674335698,0.2239969265,0.1797505264,-0.6484681098,-0.8787261368,0.7309444523,0.376086672,0.0678674235,-0.4005021841,-0.0902129576,-0.3486779265,0.4454349912,-0.7727201774,-0.6092265613,0.4273071117,-0.7875122035,0.800151264,-0.3133578437,-1.0084369306,-0.4042507885,-0.0166193014,0.2312966557,0.1359144831,-0.4724341776,-0.48418818,-0.329227169,-1.0442961958,0.3424498713,0.0667619697,-0.207474295,-0.764020072,0.1572472649,0.1758310272,-0.1952392099,0.5699744732,-0.9268591586,0.4086664183,0.3668523507,-0.5459706964,-0.6185451455,-0.6282990322,-0.8718999464,-0.4146644975,-0.4761079962,-0.5285394664,0.493762983,0.6399693019,0.7217865439,0.5430954042,-0.2844277759,0.9164678241,-0.509137685,0.3972970269,0.6603012225,-0.176578608,-0.147437816,-0.1097871007,-0.6202158839,0.2477798388,0.1448442104,0.163607899,0.1676901697,-0.8290952018,-0.6761458291,0.082852387,-0.3417442739,-0.7405329999,-0.3724817991,-0.176187166,-0.0483733019,-0.264200699,-0.0334263681,-0.0530918085,-0.4803998021,0.4635634317,-0.6000233286,-0.7253476854,-0.7968348185,0.1987040467,-0.5740730424,0.1855054102,-0.1402638795,0.5873458364,0.7959254677,0.7491220831,-0.0157557615,0.571773332,0.6053248345,0.5650980192,-0.3133896433,0.236749433,-1.0708081168,-0.7066872016,0.3886237708,0.1693301166,0.803083948,-0.502139204,0.8073932777,-0.6147405544,0.8222845074,-0.3038210777,0.3051910733,-0.4417072845,0.2016400191,0.6631426742,-0.5582776789,-0.8703377617,-0.1346089464,-0.4521490627,-0.4265709047,-1.0340899784,0.9165624793,0.7546030167,-0.2490974712,-0.5362002014,0.2475947924,0.516909752,0.7622212214,0.1658545714,0.7019191801,0.0750567301,-0.7944225102,0.7256284698,0.2889281371,-1.0447897604,-0.0382585761,-0.0773745999,0.2723023205,-0.2964059144,-0.2529128511,-0.9254812303,-0.4994084644,0.4841961332,0.8595792158,-0.3233395767,-0.9157451353,0.1913056554,0.4436360575,0.8233315534,0.2013268354,0.2727304681,0.7331830463,-0.3878836888,0.6042464115,0.7371134554,-0.3647890183,-0.0958483693,-0.9659386588,0.7835153464,0.1855652885,0.5218947871,-0.7405896139,0.3638729809,0.8858293357,0.5469110368,-0.1651365353,-0.3979581598,-0.5563739827,-0.5335100057,-0.9378382084,0.7817324334,-0.606207358,0.8401260416,-0.7845899263,-0.657805114,0.634070026,-0.5411421048,0.5095344199,0.7916484348,-0.4919099351,-0.4417151029,-0.3242383591,-0.6047472402,0.5807496581,-0.369287999,-0.0046482649,-0.6961179802,0.6842519568,-0.3309709768,-0.3948523837,-0.99288857,0.8681256132,-0.9149744484,0.2566838402,0.1987101644,0.4435353295,0.2445542318,0.5945203906,-0.2926416304,0.2899513974,-0.7556251921,0.016079906,-0.8562476018,-0.9013167557,0.672840314,-0.5301190202,0.2467969208,0.7621297697,0.7459964543,0.7077077272,-0.2552018761,-0.6614263689,-0.2612697433,-0.5703156823,-0.8235120245,-0.1814389008,0.0715048863,-0.8168567427,0.6383261717,-0.1682052733,0.0250892547,0.2428188257,-0.7776602693,0.8113389237,-0.8266024497,-0.5338895555,-0.0491801942,0.9486898444,0.7529522002,-0.7937692891,0.2442040757,0.6748138504,-0.6288879307,0.8098054174,-0.7554849644,-0.7625414329,-0.5850630972,0.6495346129,0.8984177234,-0.947189753,0.6702430365,0.9095551091,0.5857538568,-0.6207743035,0.1810190547,-0.1480418126,0.302684881,-0.7259745342,0.8273938193,-0.8207437073,-0.8620292971,-0.6804207966,-1.0284066503,-0.4359861969,0.8602119997,0.4510185532,-0.5662876131,-0.9240778968,-0.1690775939,-0.8056634454,0.4844173002,-0.1126541637,0.9362892804,0.9178188546,0.7440888688,-0.5910779973,-0.2941040162,0.0387698797,-0.7026644194,-0.763237312,-0.2082868445,0.2559803488,0.3427470328,0.9164378168,-0.2230455679,-0.6361176414,-0.495162034,-0.6353680936,-0.9835499029,0.7330842374,-0.3797534579,-0.3152146692,-0.7581910354,-0.9075746768,-0.1175399469,0.3414784332,-0.4846045159,0.673525746,-0.375329985,0.7859722232,0.2387442352,-0.5340672995,0.661494808,-0.7110106001,-0.9894518858,0.0209979085,0.44004128,0.7637760628,-0.4036133768,-0.9133150206,0.6264472075,-0.6954608152,0.0405947138,-0.7488065834,-0.1716354034,-0.3146927016,-0.1028495267,-0.0971270453,0.2201710285,0.8204297839,-0.8888929363,-0.607886549,-0.5814179456,-0.6541293554,0.7417492746,0.6960551449,0.5967483382,-0.2164508471,0.889871901,0.3983276603,0.6179079567,-0.3957403063,-0.010275493,0.4458759256,0.7842047747,-0.1764256779,-0.7612919825,-0.7731335739,-0.3332880332,0.1359182466,0.1899268709,0.8181682545,0.6829171303,0.7594273775,0.5341856157,0.6845983509,0.2101480591,0.6447167024,0.6923280025,-0.4517699414,-0.4110548123,-0.4701287567,0.9264608559,-0.3249885773,-0.5258080416,-0.2719219459,-0.2608357737,0.9069022637,0.9461608082,-0.1600355928,0.8243851013,-0.9317371482,0.9190034467,-0.3869763451,-1.024936648,-0.6352951698,0.7986649279,0.7265711357,0.8756826117,-0.5325161791,-0.9603643662,-0.2548494476,0.9284691716,-1.0054490385,0.100132171,-1.0173900576,-0.781920212,-0.9608101834,-0.5068386703,0.4802913184,0.8624456565,-0.7501530212,0.6989024426,-0.8006903,-0.8295316489,-0.2903744735,0.7329675236,0.4910266435,-0.1175050526,-0.1639860054,0.8853112548,0.475178704,-0.7743169154,-0.4609709581,-0.9619204146,0.3333861079,0.3962189862,0.4745750302,0.8557653516,0.7119742542,-0.2742998896,-0.4529621289,-0.8304924914,-0.79076483,0.423021207,0.938484908,-1.0067476098,-0.8342064105,-0.4640025519,-0.4060350547,-0.8247365262,0.5247455201,-0.9966772737,-0.854828004,0.1158297215,-0.7142248991,0.5715277346,-0.5777824674,-0.8589419668,-0.7842006957,-0.0744408418,0.3836548719,0.250680077,0.0330260265,0.5053218925,0.0433730738,-0.6194642676,-0.9962284863,-0.8130452995,0.3175976485,-0.4887475324,0.0604013084,-0.0374507857,-0.7092783841,0.9440245751,-0.7935780028,0.8735707365,-0.2803995648,-0.9260628566,0.4977089797,0.4629930146,0.0467403296,-0.7021016094,0.3521219558,0.930033437,-0.8973869532,0.4652515725,0.79605439,-0.9448484201,-0.2378247426,-0.0860311017,0.629531094,0.8449895021,-0.6427114475,-0.0333339205,-0.7861120079,-0.1696428475,0.0302829782,-0.9539583024,-0.0724391001,0.0443655805,-0.2399665727,0.7316310784,0.7444478257,0.4055438426,0.1906223239,-0.3424647428,-0.4167837801,-0.4530207146,-0.9560624439,-0.4151956922,-0.8037307976,0.6444364227,0.2106568327,0.6882014023,-0.5476490695,-0.4024308904,-0.7325639074,-0.8473253404,-0.9713371125,0.8098961896,0.7804330249,-0.4186863335,-1.0004160224,-0.1396842848,0.4081417974,0.3315946432,-0.5748455572,-0.5800137539,0.6575306876,-0.6160825623,-0.3778567177,0.636095032,-0.9326187185,0.8617114358,-0.870807247,-0.8875112929,0.2650438322,-0.1166900423,-0.8398291246,-0.4345490577,0.1818536834,0.1470014599,-0.913949679,-0.8161280875,-0.9460124333,-0.1326221512,0.3908292124,0.6204732018,-0.987597242,0.1874991091,-0.9173209719,0.636049985,0.4164168206,0.4679746072,0.7456639652,0.5898968928,0.721313737,0.5578226687,0.2816117058,0.3552324396,-0.6019843456,-0.8289926298,0.6368302758,0.346222311,0.2901794278,-0.601611056,-0.4059543154,0.1829103864,0.0142607487,0.5889360891,-0.508593698,-0.1302976553,0.8986477782,0.050095527,-0.3314205961,0.4413170886,0.8562323067,0.3417928852,-0.1840613465,-0.8469903525,0.8010492268,0.566760555,-0.1611084834,-0.2646826668,0.4435179882,-0.6731179703,0.0007796543,-0.9041021652,0.130114963,-0.4150325257,-0.6094510754,-0.8416119917,-0.0587872906,-0.8742164753,-0.5637611515,0.8450752528,-0.5805727552,-0.3124767572,0.024049798,-0.4438107531,0.9223477962,0.5770130705,-0.8179808387,-0.684309575,0.0709558793,-0.7659333279,0.1849809935,0.7567352282,0.6170141611,-0.5721548656,-0.5974376195,-0.3263603502,0.0835062635,-0.5924258686,-0.2869506833,0.5043393862,-0.323189613,0.7905520989,0.2589753362,-0.0427728988,-0.8485563957,0.423752541,-0.975715246,-0.9053364378,0.4917275073,-0.4160785169,0.6778987307,0.2553578429,0.3845862633,-0.864351361,-0.2936324721,-0.3755109084,0.5513051295,0.0217263132,0.8307916934,0.5371580898,0.7394606845,0.1337047038,0.1231146917,-1.0131561943,0.2251466894,0.5484818923,-0.698467078,-0.4968547681,-0.0248458236,-0.6130391506,-0.2497557341
   -0.3202201258,0.0729771938,-0.9843455965,0.2958493015,-0.3750230107,-0.4446804584,-0.8256384519,-0.1032793492,-0.4799490918,-0.0218797998,0.2976323908,-0.478455558,0.8428014108,0.7110570931,-0.2121633109,-0.0563326834,-0.6761357959,0.134193353,0.2563693598,0.5349722893,0.1688669955,-0.7675074179,0.6111095824,0.4421473399,0.1617521396,0.9625636284,0.9318918487,-0.4290430793,0.5157379535,-0.6817758125,0.1666102089,-0.3591195997,0.6301446148,0.9597427718,-0.2956478215,0.4010709162,-0.3118925711,-0.7521404289,-0.4891323156,0.2906583823,-0.2652612122,-0.5318997733,-0.0492710636,0.9509182978,-0.3428280113,-0.3157466943,0.2075752436,0.9437368474,0.6635156073,0.2506014427,0.3019873417,0.5063215982,-0.4634939832,0.5942549796,-0.2435764421,-0.5500365318,-0.3608113478,-0.3864689972,-0.0821781118,-0.9185571883,-0.0889131809,-0.5230197267,-0.8556014409,-0.1686822805,-0.6626929365,0.8274723416,0.1801189888,-0.2052678689,-0.559104307,0.2919481933,-0.9224178386,0.084744014,0.9065656026,0.2717843612,-0.0609463639,-0.0079073639,-0.3101602054,0.4317938919,-0.0473351313,-0.1566668682,-0.6347271498,-0.8098006064,-0.6738586234,-0.8162250071,-0.4851147477,-0.3766800688,0.0970015386,-0.4402381804,-1.0080430403,-0.1555516727,0.0484380193,0.1229374366,0.3263182516,0.4147798024,-0.1096120123,-0.1459975382,0.5656220724,0.3602969368,0.8580666928,-0.8917389873,0.5978985573,-0.938549176,0.7942934218,-0.3201895848,0.0779518907,0.5210065921,-0.1372772043,-0.4939883287,-0.2581979435,0.8400187882,0.6212631104,0.7608116503,0.7864423934,-0.5869232744,-0.1339461987,-0.1788054273,-0.7677649228,0.7175496435,-0.4531514628,-0.536604375,-0.5395105138,-1.0464013911,-0.4058468364,0.8212329766,-0.4988916353,0.7494104528,0.5418571045,-0.2373339602,-0.6915785382,-0.1210779966,0.0129407088,0.7857666653,0.5009437844,0.5996731415,0.0812916396,0.6429166063,-1.0014882455,0.2116456541,-0.3443667182,0.6900186749,0.3494409168,0.5033242736,0.1278401882,-1.0351645777,0.5204819768,0.502848879,-0.8105397814,0.021270073,-0.7206338415,0.3071232977,0.5216529108,-0.2361885136,0.0076029703,0.3313993009,0.8875090205,-0.9467446639,-0.4421823038,-0.8424310787,-0.9795521338,0.142944146,0.2397618937,0.2550337297,-0.0506078047,0.2720765248,0.293592544,-0.8461313513,0.6830569565,-0.4421288019,-0.8925454066,0.2041086317,0.1764888277,0.2646448416,-1.0289264279,-0.3834858919,-0.4148657305,-0.8624147551,0.167277069,-0.4098259656,0.700055965,-0.0039739024,0.6337384406,0.5278587923,-0.1053686878,-0.9608290202,0.8454858731,0.3987099239,-0.4161018497,-0.4448905334,-0.6540841043,0.1502633647,0.4109561375,-0.1114832828,0.6024915194,0.7378655226,-0.7855674783,0.9017966882,-0.9982097224,-0.8318717968,-0.1319895704,0.0686155171,-0.4568658056,-0.0572508987,-0.4101420065,-0.3608890743,0.6480971416,-0.2827109594,-0.4276894542,-0.1747881884,0.4866881911,0.669460539,-0.2128261507,-1.0430844306,0.7372365868,-1.0709988007,-0.3237416448,0.7718382482,-0.7021468435,0.6262279233,0.7719493249,-0.3604854843,-0.9078068722,0.3998599626,0.8048981784,-1.012536581,-1.0126628994,-0.7481464064,0.6636611249,-0.7350921931,-0.7381551474,-0.2817609468,-0.1622028558,0.5874987776,-0.2766657588,0.7191663026,-0.3643555799,0.7314952069,0.6865577408,-0.5660227598,-0.0036479475,-0.2863997088,-0.0891102203,-0.3082069207,-0.0982525028,0.9009060518,0.0355067123,0.4129842747,0.4879895032,-0.2320415856,-0.0365410972,0.5315919585,-0.1847747756,0.729381086,0.8918072638,-0.8705826335,0.7679038484,-0.0598200664,0.6478843347,0.2145849082,0.900430623,0.6782215817,-0.3785739871,-0.4582343165,-0.3170501019,0.6365345972,-0.7394858919,0.5901503295,-0.4458064268,-0.5369489833,0.5054865172,0.4214010085,0.7037446471,-0.3986016656,0.6397250216,0.6610613668,-0.6985910501,0.7060751462,-0.7257948721,-0.8503300415,0.5245835734,-0.5305431843,-0.5085515047,0.4667278113,0.1174374389,0.8468925205,0.1534971768,-0.0633939107,0.7010510867,0.934105322,0.6210749719,-0.892338438,-0.034904645,0.9328559273,-0.7979211071,0.7072511887,-0.4941556316,0.4820534782,-0.1125167532,-0.6972526978,-0.7789124604,0.731866461,-0.7033646383,0.7827084454,-0.4469684921,0.1747084576,-0.4415471675,-0.464320655,-0.408991945,-0.8203020524,-0.7197456621,0.2002031759,-0.9438596665,-0.0244362336,-0.4499593635,-0.7287382643,-0.4158229004,-0.9552332088,-1.0145725332,0.5179925427,-0.7921628875,0.6706594813,0.5021985379,0.9425334773,0.8662265577,0.0719627406,-0.3234106648,0.3218464645,0.7481045626,-0.5843974044,-0.5091044071,-0.8735752349,-0.186382472,0.5439072854,0.0003981209,-0.408482873,-0.5847033696,-0.0917681056,-0.1293500036,-0.785233027,0.1846871286,0.4191712292,0.1723389319,0.4520396937,0.8252336253,-0.9194142482,-0.7661110533,-0.6160624411,-0.3989115972,0.0998383692,0.7934399239,-0.2363159804,0.7446533212,0.4473418695,0.2699009104,0.7747986259,-0.6168435733,-0.6067796982,-0.4978068864,-0.7946949716,-0.9538424967,0.6490635356,-0.306640126,-0.7476249005,-0.5171230419,0.722143473,0.5331171142,-0.4419165865,0.4319369289,0.3169990951,0.1810851452,-0.4112169734,0.7734182619,-0.9542689955,0.2318841476,-0.7077989193,0.5586457369,0.1958994961,-0.2309249847,-0.2632664805,0.7561513253,-0.3947522844,0.2083851745,-0.1144742755,-0.6729581683,0.4725677804,0.8103514861,-0.2023051699,0.3778589199,0.6830752641,0.6698506407,-0.0246907557,0.3772632382,-0.942943588,-0.8373284749,0.5004642393,0.6543522502,-0.1502106062,-0.5458096397,-0.0708840736,-0.8723172085,-0.1284981184,-1.0214349239,-0.1545623156,0.5479502054,-0.6583177511,0.8314068157,-0.7914975685,0.9464008316,-0.7765376331,0.9424447203,0.8108167136,0.0290454331,0.6898182189,-0.4833432944,0.1796364252,-0.9231752325,-0.0004678885,0.2044191459,-1.031300435,0.1324937293,-0.145937953,-0.8319757614,0.6260708901,-0.412479894,-0.4324659496,-0.9816697893,-0.0383720067,0.3532334667,0.2870482442,-0.9912478426,-0.3325758643,0.1294855849,-0.3408393534,0.2562875032,-0.1210440521,-0.8120893559,0.6828987089,-0.1027759769,-0.8314933549,-0.1028957128,0.306374043,0.4302226191,-0.6816042976,0.9059089801,0.193438342,-0.8912770984,0.463305338,0.7391151513,-0.5933751432,0.432879346,0.8282914717,0.9515296046,0.5203286891,0.0343629043,0.8526642529,0.2691670969,0.6294379191,-0.9022140836,-0.0301772373,-0.7087800302,0.2272060627,0.5648730173,0.5762586135,-0.9210922006,-0.9788810973,-0.662063781,-0.8728008992,-0.2110434529,0.0816909997,-0.3746906536,0.17103176,-0.0957474449,-0.4971612153,-0.5476688621,-0.150442808,-0.3489659026,-0.9652793924,-0.783767281,-0.2189251315,-0.6810547171,0.4397172835,-0.7213342199,0.9335568852,0.274123381,0.2419089149,-0.6102590735,0.6291191501,-0.8217350809,-0.971535267,-0.4941555352,-0.1022458045,-0.6306631688,0.482515711,-0.7982899572,-0.578127883,0.7537855305,-0.8336222965,-0.3321525697,-0.7117613363,0.3722367768,0.5990137992,0.5729575635,0.2476710417,0.0583252131,0.5323375812,-0.8628921365,-0.7799784195,0.7432313338,-0.6495258542,-0.1922686119,0.8606971416,-0.7032723233,-0.4949620176,0.5013825583,-0.9194241989,0.7159741865,0.8764524213,0.2956368034,-0.8854726034,-0.3105152216,0.8755850831,0.0134776681,0.6728269388,0.8700091434,-0.1694883424,-1.0167169724,0.7245066939,-0.8251894096,-0.3798383634,0.7208001073,0.4113797228,-0.9209868387,-0.7467823446,-0.3559722643,0.8351698298,-0.5300644464,-0.1671780149,-0.7051690512,-0.0931698751,0.4241376896,-0.8594513134,0.7608237797,0.0001018734,-0.5385012332,0.5615711799,0.7205597313,0.3582461285,-0.307773878,-0.7962599975,-0.2490883104,0.709633643,-0.5802458519,-0.2400611066,-0.3507387305,-0.7627634387,0.4936823638,0.7858983918,0.2730053215,0.1494588879,0.7251615824,-0.2463724368,-0.844815404,-0.6113845741,-0.6229648108,0.2760395197,-0.7366931376,-0.6614329809,0.3059998024,-0.2232824263,-0.0907385482,0.9215725642,-0.8987461707,0.7306634868,-0.5794785336,0.8226366288,-0.7318626037,0.8137776439,0.7601935643,0.8342040654,0.181543971,-0.6082791167,-0.6621765026,0.5073083272,-0.3056267782,-0.6773577113,-0.291837424,0.405484468,-0.8550248512,-0.9283539252,0.5401083009,-0.7218840921,-0.8656507743,0.8894834089,-0.8413036212,-0.4372196679,-0.6479130999,-0.8662156618,0.3246678184,0.3969788761,-0.2111088813,-0.301882184,-0.174854417,-0.5903361821,-0.654227141,0.636782363,0.2894923243,-0.3476061743,-0.1322525219,-0.5048127908,-0.9903336325,-0.6560512516,-0.0444528002,0.6847036477,-0.9493007631,-0.1472290751,-0.6272956414,0.4564063111,-0.4757273943,-0.1264331827,0.6844566952,0.304164477,0.5911092164,0.4093634538,-0.0457708082,0.3664289681,0.5057814713,0.2051526658,0.9071975879,0.7832744338,0.3375670462,-1.0227376246,0.868474799,-1.0200959115,0.4757253841,0.3902978524,-0.1763671547,0.4453048205,-0.5133669295,0.2073232917,0.152173614,-0.0853921349,-0.8897846576,-0.3775676302,-0.4632377416,0.7763754295,-0.3125081455,0.3101578278,-0.397560643,-0.5487594059,-0.2396641462,0.4227823578,-0.7501370761,-0.3878991546,-0.1319665362,-0.4441080747,0.3832805618,-0.1316067601,-0.8393368849,0.5042442847,-0.003776847,0.4848745003,-0.283600533,-0.5178494884,0.7755199627,0.3497716965,0.79228975,0.2723835672,-0.3039759751,-0.1467590796,0.5817683191,0.2141185685,-0.1119229732,0.5304854342,-0.6247643554,-0.110513919,-0.4291872065,0.5771581442,0.5242525032,0.642406325,0.551270048,0.4905301553,0.3024797283,0.3382848097,0.7964207858,-0.6766861851,0.5755588908,0.4700242589,-0.2764048255,0.3836814594
##end
biasActivation=1,1,1
[BASIC:ACTIVATION]
"org.encog.engine.network.activation.ActivationReLU",0,0
"org.encog.engine.network.activation.ActivationReLU",0,0
"org.encog.engine.network.activation.ActivationReLU",0,0
