encog,BasicNetwork,java,3.4.1,1,1523101636966
[BASIC]
[BASIC:PARAMS]
[BASIC:NETWORK]
beginTraining=0
connectionLimit=0
contextTargetOffset=0,0,0
contextTargetSize=0,0,0
endTraining=2
hasContext=f
inputCount=40
layerCounts=41,3,41
layerFeedCounts=40,2,40
layerContextCount=0,0,0
layerIndex=0,41,44
output=0,0,0,0,0,0.3739424391,0.4552657246,0.0738878322,0,0,0,0,0,0,0,0,0.2948860082,0,0,0,0.7581396195,0.1988976299,0.2172100983,0.2256174,0,0,0,0.1524489122,0.1242645476,0,0,0,0,0.0130499723,0,0,0.1686046909,0,0,0.2111338979,1,0.5485978671,-0.8068655793,1,0,0,0,0,0,1,0,0,0,0,0,0,0,0,0,0,0,0,0,0,1,0,0,0,0,0,0,0,0,0,0,0,0,0,0,0,0,0,0,0,1
outputCount=40
weightIndex=0,120,202
weights=0.070112378,0.5437536871,-0.3338493396,-0.11825085,0.2157850077,-0.060068686,-0.1760769168,0.0953466312,-0.0707157354,-0.0597070729,0.1386860306,0.0187382432,-0.4180356533,-0.0343199063,0.0913737675,-0.5811205076,-0.3716696067,0.392855251,-0.3464369417,-0.5316034575,0.2163864677,-0.2191442523,-0.0824288353,0.1276006078,-0.0896589213,0.5823899951,-0.6376565388,0.4438132928,0.3690636583,-0.186338038,-0.265323012,0.4235279515,-0.4608298619,-0.4960582043,-0.0046511768,-0.2589072461,0.4236980342,0.6312050897,-0.4545665338,0.3947027297,0.3729189531,-0.6231194309,-0.3033553314,0.1479377183,-0.3931643701,0.3888480485,0.610186423,-0.4555932958,-0.0029477263,0.0814749977,0.3622420517,-0.03831635,0.3049719399,0.1122539652,-0.5520620289,-0.3441108141,-0.4403384599,0.3433322522,0.1295033806,-0.574143079,0.4202881309,-0.4644925947,0.1527850303,-0.0902736905,0.0193176605,0.2640077007,0.1626668705,-0.1098710422,0.0393197716,-0.5973869695,-0.0137300293,0.5422637576,-0.2648918334,-0.3968600486,-0.2236013443,-0.2182523546,0.3991509194,-0.638821527,0.1156422485,0.1148177991,-0.0320969586,0.0184841774,-0.1715068715,0.0039258535,0.0787218231,-0.0607709055,0.0320428779,-0.0172486152,0.4213226933,-0.5836383662,-0.5755000651,0.2212508774,-0.3335187012,0.0321321055,0.0780366298,-0.183919067,0.391767223,-0.1653961034,-0.3582844887,0.2468592515,-0.4010781396,-0.4459919213,-0.0426840515,0.2065925468,-0.0801281321,-0.0531589842,0.1033747795,0.0170146165,0.1802573251,-0.2337857851,-0.118918486,-0.1345879309,0.1989823331,0.2184435244,-0.4317809749,0.605394381,-0.6698820617,0.2769491314,-0.0968178402,-0.0189199967,0.3951854465,-0.5306870191,0.1376228198,-0.3651341401,0.4099084491,0.4541891963,-0.8503894166,0.6669605135,-0.0705360605,0.2705680623,0.5252775832,0.521561278,-0.8421407483,-0.0719179565,0.2616861757,0.8066474516,0.0792775442,-0.4635469072,-0.852653413,-0.2257552541,0.0930349017,0.4721631591,-0.2860029726,-0.2841964685,-0.0887494812,0.20605301,0.0470050553,-0.0259739214,-0.2929603531,-0.3977603354,-1.0097872639,-0.7070712603,0.6148453089,0.1988560169,0.633548677,-0.442368865,0.1301901575,-0.2806290079,-0.5211795083,0.3968323185,0.0013733642,0.5324123006,0.0428307051,0.5584503049,-0.4402730027,0.4823309767,-0.1525413018,-0.6887664909,-0.6267162686,-0.5689471702,0.4331761938,0.3716462598,0.2464909899,0.4268506634,0.146361751,-0.0599347062,-0.8605807719,0.6428402752,-0.4809149101,-0.3504730154,0.382981295,-0.8064945346,0.2083312656,-0.7275286835,0.2727576476,-0.4594139595,-0.1324270433,0.0657529878,-0.8939145776,-0.0561775616,-0.1426304216,0.6191301161,0.6052178572,0.068110424,-0.2822298793,-0.0596066132,-0.0351611445,-0.3626137675,-0.746748651,0.5573985035,-0.4598083164,0.1521699776
biasActivation=1,1,1
[BASIC:ACTIVATION]
"org.encog.engine.network.activation.ActivationReLU",0,0
"org.encog.engine.network.activation.ActivationLinear"
"org.encog.engine.network.activation.ActivationReLU",0,0
