encog,BasicNetwork,java,3.4.1,1,1524031307065
[BASIC]
[BASIC:PARAMS]
[BASIC:NETWORK]
beginTraining=0
connectionLimit=0
contextTargetOffset=0,0,0
contextTargetSize=0,0,0
endTraining=2
hasContext=f
inputCount=210
layerCounts=211,21,211
layerFeedCounts=210,20,210
layerContextCount=0,0,0
layerIndex=0,211,232
output=0,2.7615905527,1.4118006735,0.2446837156,0.474523835,3.1947582587,0,0,5.9941998857,0,0.2468242639,0.4514307016,0.1093280859,1.470452781,0.0732016633,3.3012703519,0,0,0.9576274365,0,0,0,0,5.3451448084,1.1163774669,2.3143555128,2.2803406255,0,0,0.2189619416,0,3.2056513235,0,0,0.7883248187,0,5.0427144741,2.4122442808,0,0,3.1525393403,0,0,0,0.2693046629,0.9672764771,0,0.6657315254,2.1865463892,0,0.7323965947,0.1239377275,5.9994498422,3.7087938471,1.0901785259,0,0,0,3.8942578984,1.1205517132,0,0,0.8176786261,0.632198275,2.3296653457,2.0418895452,4.7024650557,1.841752252,4.0234334234,0,0,0,0,1.0646934309,2.5980797236,0,0.9890474153,0,0,0,0.4571484286,0,0,0,0,0,2.3127987082,0,0,0.1436842558,1.1926031426,0,1.8004280731,3.844708209,2.0864004853,0,1.8547768095,0,0,1.37341448,2.3504717998,0.2501434425,1.5431958019,0,0,0,3.6096333665,3.1863672278,0,0,2.3880433641,0,1.1727139287,1.8350364775,0,0,0,0,0,1.9473313651,1.2950808654,0,4.646468875,2.8908073468,0,0,0.1409110749,3.2265423749,0,0,5.4716419713,4.0972137956,0,0,5.1555609548,0,1.562637417,0,5.9528532024,0,0,4.4684862232,0.9441662305,0,2.9799125162,0,1.7997269474,2.6101130132,2.8305300604,0,2.2585195619,0.2348211242,0,0,2.274120308,0,0,0,2.1125173061,1.4136987899,0,4.4932759294,0,0.1204561428,0.4209613127,3.9825004293,0.2490327505,0.3255220173,0,0,0.3798519631,0,1.9476454576,0,1.2060481117,2.5555426216,0.1813850207,3.9591910235,0,1.1113348632,0,4.0410038698,1.2775911079,0,0,0,0,1.4830089444,2.9492448756,5.4155118926,2.283520833,0,0,0,0,4.8635712372,0,2.8680473501,2.3324149888,3.4903162627,0,2.7976112226,0,1.6329234213,0.8007176838,1.9605693782,4.1899228787,0,2.9297121041,2.965595764,1,0,0,0,0,0,0,0,0.3506870422,0,0,2.4170847834,0,2.1619067959,0,0.9640696651,0,1.0318157258,0,2.3423327202,1.5153733541,1,0.2222222222,0.2222222222,0.4444444444,0.5555555556,0.5555555556,0.3333333333,0,0.1111111111,0.1111111111,0.1111111111,0.1111111111,0.2222222222,0.4444444444,0.6666666667,0.6666666667,0.4444444444,0.2222222222,0.3333333333,0.3333333333,0.2222222222,0,0.1111111111,0.3333333333,0.5555555556,0.6666666667,0.4444444444,0.4444444444,0.4444444444,0.5555555556,0.4444444444,0,0.2222222222,0.4444444444,0.5555555556,0.6666666667,0.5555555556,0.7777777778,0.5555555556,0.5555555556,0.3333333333,0.1111111111,0.2222222222,0.3333333333,0.2222222222,0.4444444444,0.5555555556,0.7777777778,0.4444444444,0.4444444444,0.4444444444,0.1111111111,0.3333333333,0.3333333333,0.3333333333,0.3333333333,0.6666666667,0.6666666667,0.5555555556,0.4444444444,0.5555555556,0.1111111111,0.2222222222,0.2222222222,0.3333333333,0.3333333333,0.5555555556,0.4444444444,0.4444444444,0.5555555556,0.7777777778,0,0.2222222222,0.3333333333,0.6666666667,0.4444444444,0.4444444444,0.3333333333,0.4444444444,0.6666666667,0.7777777778,0,0.1111111111,0.2222222222,0.4444444444,0.3333333333,0.3333333333,0.3333333333,0.4444444444,0.5555555556,0.5555555556,0.2222222222,0.3333333333,0.4444444444,0.6666666667,0.4444444444,0.4444444444,0.3333333333,0.5555555556,0.5555555556,0.6666666667,0.5555555556,0.4444444444,0.3333333333,0.4444444444,0.3333333333,0.5555555556,0.4444444444,0.6666666667,0.4444444444,0.4444444444,0.5555555556,0.4444444444,0.3333333333,0.5555555556,0.5555555556,0.6666666667,0.4444444444,0.5555555556,0.4444444444,0.4444444444,0.4444444444,0.4444444444,0.4444444444,0.5555555556,0.5555555556,0.6666666667,0.5555555556,0.6666666667,0.4444444444,0.2222222222,0.2222222222,0.3333333333,0.4444444444,0.5555555556,0.5555555556,0.6666666667,0.4444444444,0.6666666667,0.4444444444,0.3333333333,0.3333333333,0.4444444444,0.5555555556,0.4444444444,0.4444444444,0.5555555556,0.5555555556,0.6666666667,0.4444444444,0.2222222222,0.2222222222,0.2222222222,0.2222222222,0.1111111111,0.3333333333,0.4444444444,0.5555555556,0.5555555556,0.4444444444,0.2222222222,0.2222222222,0.3333333333,0.3333333333,0.1111111111,0.2222222222,0.2222222222,0.5555555556,0.4444444444,0.5555555556,0.3333333333,0.2222222222,0.3333333333,0.3333333333,0.1111111111,0.1111111111,0.1111111111,0.4444444444,0.4444444444,0.5555555556,0.3333333333,0.5555555556,0.5555555556,0.5555555556,0.3333333333,0.3333333333,0.2222222222,0.4444444444,0.3333333333,0.5555555556,0.4444444444,0.4444444444,0.3333333333,0.3333333333,0.2222222222,0.3333333333,0.2222222222,0.3333333333,0.2222222222,0.3333333333,0.2222222222,0.3333333333,0.2222222222,0.2222222222,0.2222222222,0.3333333333,0.2222222222,0.2222222222,0.1111111111,0.2222222222,0.2222222222,1
outputCount=210
weightIndex=0,4410,8630
weights=##0
##double#8630
   0.3497774939,-0.5158708964,0.8843341686,0.2162046205,0.6741631178,-0.7448552183,0.6367667012,0.4358349968,0.4749073124,-0.9798925069,-0.7875395305,0.973930574,0.9320651422,0.8918240375,-0.7924457857,-0.5575150186,0.8281829339,-0.1115309044,-0.9992515239,0.240113904,0.0190880922,-0.5467779162,0.02323415,-0.7136557885,0.0635699809,0.0765959692,0.1242076742,-0.5997742392,-0.5578051947,0.6982015486,0.5917574454,-0.0721416487,-0.0951864059,0.7571571213,-0.7819585667,-0.1532477777,-0.2888523199,-0.4802934678,-0.2970459491,0.7212654987,0.4146563777,-0.2074211917,-0.089688616,-0.0967747282,-0.6418147095,-0.6820959478,-0.5328581324,0.2910276594,0.5126075577,0.4624034146,0.4448735375,0.5623729135,-0.8161977565,0.5697508895,0.030880572,0.5455945086,-0.1982324863,-0.8818520815,-0.5504641609,0.9455813319,0.9836916069,0.5763332648,0.6944254118,0.9883880506,0.0206392531,0.1884534628,0.6362382012,-0.0314765454,0.0747597546,-0.0729703667,-0.8965204563,0.2410749875,0.5058268126,-0.9806438653,0.6938164316,-0.0878989357,-0.0610411547,0.5861981899,-0.7115302586,0.1108707982,-0.5311621704,0.7865800447,0.7124923422,-0.5064892975,-0.8310975146,0.8706591767,0.4850454667,0.4968898462,0.7906741503,-0.6357085419,0.5370394817,0.5518272154,0.1579004015,0.0546970925,0.1263445133,-0.9309071243,-0.3931457114,0.445901766,0.6313533388,0.469235338,-0.5931737386,-0.977997157,0.318793997,-0.1490093394,0.2959736981,0.2773641048,-0.0631554703,0.5078346701,0.7570328379,0.3292305127,-0.8424387368,0.9237680412,0.3754162686,-0.3132986063,0.1097158756,0.4099312769,-0.2139389847,0.3548721917,-0.6681264475,0.5032985362,-0.2436107337,0.9354732248,0.6859910932,0.3833311378,-0.0717502201,-0.9708544077,0.9524770846,0.2001312491,-0.8320075726,0.0713159953,-0.654261224,-0.2713480062,0.858591471,-0.5784383199,0.4196372011,-0.9742567263,-0.0717106683,0.6406936348,0.2043070153,0.2727336221,-0.1243435484,-0.081581445,-0.3543539911,-0.4430714902,-0.9454991262,-0.1890408268,-0.9232996242,0.0707255277,0.4440097879,0.6956270148,-0.2262920365,-0.1079049447,-0.7578927286,-0.0137475595,-0.5086975145,-0.2911355907,0.2174551156,-0.845081976,0.6369586451,0.196144633,-0.4157109835,0.1857476686,0.005301728,-0.5418751642,-0.7258302091,0.0743562043,0.4951750727,0.4434585897,0.4577670287,-0.9940971804,0.6507145235,-0.84912284,-0.557630199,0.6553648887,0.9799538402,0.6633000826,-0.55549226,0.6605962213,0.8731438005,0.8495720572,0.4692106958,0.8194237926,-0.4525361167,-0.7934730691,0.4616972174,0.6654415616,0.8734985558,0.6539146452,-0.5432299929,0.6191093865,-0.431798433,0.7299543107,0.3572247199,0.3345581853,-0.7765861112,0.1978666737,0.0513267145,0.5057025343,-0.9702061263,0.5819469764,0.0220191218,-0.8680990387,-0.666913635,-0.0580868196,-0.3017364055,-0.3795482426,-0.795727547,-0.7243836425,0.8548769148,-0.3965111313,0.6917322425,-0.6672128633,0.2308971509,0.6423148809,-0.6192797733,0.1406266326,-0.0825973596,-0.1488904199,0.3396745717,-0.4010415958,-0.2684294763,-0.428686056,0.3408984117,0.0927916153,-0.3390182209,0.4421529639,0.7079421748,-0.0838416735,-0.1276449595,0.4311463617,-0.5643939692,-0.0273089153,-0.8992922215,0.9293397446,0.5698150304,-0.5896039803,-0.3160919926,-0.4319781199,0.6517789169,-0.5475670445,0.4768186608,-0.4655797415,0.5883658382,0.756879957,-0.446233531,-0.5993157802,0.7779179234,-0.3605674853,0.7239310489,0.3250426362,0.191341285,-0.4229620483,0.8867453725,-0.4351687065,0.9114901644,0.7917756441,0.423294517,0.0641241801,0.0469395798,0.4313323081,0.5155106077,-0.2448883499,-0.8859467002,0.7516673005,-0.3246669966,-0.0802885401,-0.7561833901,-0.0464998559,0.8398005692,-0.4499373248,0.8673795383,-0.1415371437,0.8266671496,0.5334441706,-0.6547470975,0.3988698499,0.6614991706,0.3075155566,0.6595942082,-0.2517808852,-0.3679661012,-0.1263524971,-0.1332145586,-0.7750610584,-0.5613829784,0.2933767178,-0.8122268401,0.1582666885,0.3138066765,0.8489461161,-0.1555238119,0.8520527115,0.2335483853,-0.5749310282,0.8956934571,-0.0670039966,-0.1808221231,-0.6651047783,-0.9592661087,-0.5578406833,0.688293636,0.0487643622,-0.840330805,0.1638022312,-0.8552421323,0.9046590005,0.2747611923,0.15664578,0.147503317,0.2942151505,-0.0338881632,0.6563785869,0.9740071394,-0.9448212049,0.5608385681,0.4784538848,0.8545217579,0.0949989172,0.8183892317,0.2855305605,-0.4598152196,0.9896195031,0.5635765633,-0.7247553392,0.5030955521,0.8242868304,0.8106666078,0.1713812152,-0.7362244704,-0.9933287852,-0.70518857,0.9450648579,0.9045042333,0.9445507083,-0.4434912726,-0.8419186996,-0.1565528534,-0.1140965209,-0.7292525028,-0.3633545368,-0.6272447994,0.7631272329,0.2987565936,-0.8445204693,0.9892026705,0.6794347171,-0.1408179017,-0.6237411731,0.0344533429,0.3633016208,-0.0521988997,-0.8164284751,0.0373555118,-0.4409906216,-0.3762193601,-0.7993413904,0.9692130494,-0.950641034,0.331077094,-0.1551534386,0.3969142051,0.6546131232,-0.9906772892,-0.6973134281,-0.9499277568,0.0834400716,-0.1674181931,0.3999212632,0.3064495765,0.0712900729,0.7337220831,0.8890491163,0.0725847716,-0.4471879916,0.6238840622,-0.1141566275,-0.3032882991,-0.9813872874,0.1585892351,-0.9253757957,-0.0518101671,-0.4758722685,0.9999354648,0.5931095131,-0.2171321703,0.3781899978,0.2784557596,0.0941391641,-0.2922707167,-0.2649974139,-0.9083085987,-0.9268647641,0.3408800457,-0.3669040455,0.5038541988,-0.6187479376,0.7292035119,0.8648940875,-0.4092201856,0.5454366912,0.9122576819,0.2077297282,0.895442737,-0.441471283,-0.6247552478,0.3161023262,-0.8425449252,-0.4773323885,-0.8950806567,-0.4562616887,-0.7280608307,0.0044757893,-0.2237372112,0.8943438293,-0.4001926038,-0.5486609062,0.3199240639,-0.4536569304,0.8867406007,0.7808574324,0.6221085694,-0.252020552,-0.1282403139,-0.5501665374,0.1489600927,0.9636760144,0.1377614827,0.3392256844,-0.1919995733,-0.6388582046,-0.7929360864,-0.0061426064,-0.8354217143,-0.5023466186,-0.7712735067,0.9148425576,0.6915717298,-0.8723066053,-0.5525120303,0.0828742943,-0.713818152,0.6302156374,0.5322591278,-0.5368858494,0.6447011288,0.6480570793,0.2352003887,0.7441636712,-0.8697033596,-0.3468353102,0.9896991376,-0.0046199931,-0.4786256661,-0.3917213552,0.3234361124,-0.9161158241,0.6878231362,0.8987299354,0.2556890079,-0.2377510039,0.3132611963,0.4420452382,0.117607959,-0.1854748021,0.0664408619,0.0839965635,-0.7413562893,-0.6358911095,-0.1348576937,-0.3172250026,-0.5886710385,-0.2050265032,0.5571108262,-0.734031256,-0.2129666447,-0.1154986877,0.5048132106,-0.5800498558,-0.6796850938,0.9919138878,-0.4110483894,-0.5879062593,-0.4018688175,-0.2428993775,0.2190491137,-0.93444835,0.7348583366,0.7377241341,-0.6976803711,-0.6524269897,-0.0144902844,-0.9970412758,0.2450398248,0.790473793,0.2868261943,0.3485108474,-0.0596085249,-0.2335975003,-0.7597415363,0.9912352278,0.4632444344,0.2092562889,0.3900865605,0.7398742512,0.3180474305,0.269276153,0.387203812,0.0347366702,0.7185398391,-0.9382372825,-0.0575886621,0.8111116483,-0.3771228204,0.5938776104,0.8159939183,-0.6865041096,0.6317323124,-0.192153743,-0.6833832359,0.0830890246,-0.0694346815,-0.2881584007,-0.4414728245,-0.4175788657,-0.1246847149,0.4724600307,-0.6395802589,0.1883517915,0.9957099488,-0.9213881975,-0.6465961168,0.6722220658,0.8985639533,0.026670419,-0.5737271422,0.4889428415,0.2508388733,0.311194406,-0.269923226,0.2008340545,-0.9647338943,0.3553944671,-0.0786228722,0.4949734718,-0.4788630299,-0.8619772141,0.5412824925,-0.6144817613,-0.7993649228,-0.2802068861,0.686449109,0.8375118784,0.6242024448,-0.1829461484,0.0712682037,-0.1161522193,-0.2949440271,0.7069317833,0.1741955486,0.9632210923,0.0940996013,-0.0322693067,0.6649600048,-0.5304992566,0.6427202483,-0.4037472288,0.973683469,-0.6915265442,-0.4995109475,-0.689021944,-0.9723165383,-0.8889939297,0.741933161,-0.7908982918,-0.9356359472,-0.8244873271,-0.0563696445,-0.7247051463,0.2413772686,-0.5515010564,-0.4402069921,0.4321526326,0.6441463501,-0.1101339497,-0.4222957504,-0.1116647178,-0.0901482336,-0.8675274217,-0.0407188402,-0.635224235,-0.5560956378,-0.3668724818,-0.768430858,0.511564262,-0.5212541721,-0.3792815291,0.0100221959,0.9279185412,-0.5125087355,0.2038423202,0.1863208713,-0.3974123313,0.6218993182,0.7522533965,-0.6863892258,0.0864018637,-0.9505020801,0.2591476031,-0.318604143,-0.4869347249,-0.7246126838,0.2683798818,0.0435398999,0.2099615345,-0.3443973747,0.1978365646,0.8276904204,0.9073776105,0.8652206579,0.4470424946,0.4429356527,0.0876212344,0.9266136528,-0.1890537182,0.0531862053,0.0292046084,0.8025309943,-0.6915868622,0.5494941378,-0.4416986833,0.0043272075,0.1761830651,0.754976445,0.8539334034,-0.8523029129,-0.5444790387,-0.1484322986,-0.9353917398,0.2261029963,0.2984394304,-0.0967537127,0.855482521,0.0920156142,-0.8863644037,0.9906009292,-0.9824907442,0.1244553125,0.0139785498,-0.1297004104,-0.5847169532,-0.0047033555,0.9800946247,-0.493071133,0.3515890636,0.0809110771,0.0396922939,-0.1199845472,-0.9773405132,-0.7393395308,0.5933508081,-0.4750820497,-0.1791333774,0.8461198373,0.9768908042,0.2153006183,0.879698385,-0.4648597567,0.3687635822,0.9332677928,-0.1052011433,0.6330524746,-0.2216345815,-0.6611849024,0.1692964567,0.4303807778,-0.7680291469,-0.1836464311,0.4957604587,-0.9406276507,0.828990277,-0.050499881,0.3476782318,0.5642054477,0.2058092751,-0.1304835748,-0.8179584616,0.193112794,0.2848562218,0.1601825482,0.9450406391,-0.8829645481,-0.4071726166,0.539457274,0.9833898908,0.4836630056,-0.871200951,0.3021459096,-0.2111380525,-0.9537232997,-0.7600753911,-0.4367470171,0.8113861304,-0.4394977128,-0.2023697661,-0.1013174908,0.393129196,0.8923596519,0.1108423824,-0.2431563973,-0.1167933234,0.0843550456,-0.4744242313,-0.5915564881,-0.0832604221,-0.3172084586,0.3678221052,-0.2885510065,-0.86282051,-0.8731225687,0.331051574,-0.5191340395,0.9622021602,-0.0605398249,0.2041422858,-0.1288952866,0.0406673321,-0.3793201692,-0.3632490342,0.1739950755,-0.6739493947,0.5512182723,-0.3158254256,0.6444968669,-0.0468177215,-0.6104523696,0.59050085,0.8750273349,-0.7538083236,0.45720481,-0.2486524349,0.9385655721,-0.7520699799,-0.7672694581,0.4078462654,0.3842083466,-0.2780402292,0.0371017652,-0.6129259798,-0.798804938,0.4391032467,-0.6180123679,0.4966371815,0.8739284815,-0.8283743702,-0.9842545808,0.3364028687,0.284687873,0.5602869219,-0.4226173762,0.1822151209,0.8978603297,-0.519998145,0.5556277554,0.8207536965,0.0851956897,-0.101216288,0.8272188745,0.3925421755,0.6788942631,0.0284962018,-0.0728291792,0.1510653234,0.5707646063,-0.4799647897,0.5307515814,-0.5466174689,0.2987204819,-0.5990803574,-0.9804698563,0.8077013256,-0.9528480806,-0.9239217633,0.5446974261,-0.8033359051,-0.4419852118,0.1343683701,-0.1623678464,0.5416233936,0.1694241556,-0.2991222958,-0.79657685,0.0358026617,-0.7380445732,0.7500736652,0.7919896924,0.4728354035,-0.0193353163,0.0018074788,0.5825255891,0.3740987434,-0.8237442867,-0.0029018157,-0.8879362876,-0.6894378531,0.3831335957,0.2127528132,-0.5003608913,0.0693791907,-0.8938854911,-0.5277781162,-0.9431625665,-0.8415553842,0.0140698265,0.9954426563,0.7798442938,0.6894832332,-0.3243418597,0.3047088876,0.9731646686,0.2148127183,-0.6748768309,0.1162079653,-0.8320488017,0.304162104,-0.794972045,0.2518331768,0.5053146896,-0.7812741092,0.3243152899,0.5608137812,0.0656781251,0.8310055658,0.3952765314,-0.6176546711,0.4426844526,-0.529054651,-0.5344692259,-0.7908943278,-0.3798729789,-0.9093211489,0.1120066519,-0.3288091778,0.6490569771,-0.7745883476,0.3618817688,-0.1457437064,-0.0020503452,0.5052005959,0.1972930879,-0.1649711081,-0.4877446464,-0.413871205,0.985222517,0.5710847868,0.6407863269,-0.460002391,0.1215689362,-0.1432604463,-0.1015377122,0.440354945,0.7649423837,0.3027994287,-0.5124053189,0.083760605,0.0025145844,-0.7118238159,-0.7429416301,-0.0001029688,-0.690053612,-0.8396589111,0.1863408281,-0.1419548055,0.1279478437,-0.2529302959,-0.0032617853,-0.2033093243,-0.5110274003,0.5710513276,0.0694379052,-0.7251527731,-0.4161494983,0.2396629439,0.479370245,0.410347258,0.2237828093,-0.5967461541,-0.2797120185,0.6574863541,0.942422548,0.2754490132,0.4878464866,-0.6066575245,0.8125059794,-0.8946851882,-0.2937446274,-0.964599225,-0.7847084092,-0.9357048812,-0.3054903508,0.3420765455,-0.9751749057,0.2700258474,-0.3020202581,0.8515599856,0.854434584,0.4791203404,0.8568223088,-0.3752608855,0.9803041724,-0.4441285228,-0.9315704212,-0.9267097755,-0.2003204291,-0.7682821353,-0.5266767742,-0.2080026908,0.1065548097,0.5663711918,0.6395747484,-0.678014555,-0.716641637,-0.85967187,-0.7758968591,-0.1850123051,0.1170210536,-0.3081462939,-0.9345148867,-0.9825825814,-0.4136984873,-0.527035716,-0.5595362505,0.3669538459,0.5712801812,0.612413989,-0.750747151,-0.019685928,0.2358090013,-0.7485885755,0.2529420488,-0.6250578645,-0.2564051822,0.1183457221,0.6165335775,0.2107232385,-0.3102035294,0.1930671002,0.0537471477,0.9639304995,-0.4665915043,-0.8961876569,0.799769295,-0.5444024143,0.9382241408,0.2108913365,-0.0342423572,-0.0914618295,0.423466861,0.8133362768,0.4718506558,-0.7130707659,0.7338123662,-0.8511015497,0.9241295195,0.4322152491,-0.6194738402,0.5589225833,-0.3837862847,0.8229837922,0.495060408,0.8778535385,-0.0380433205,-0.4911999135,-0.5884343242,-0.1076762034,-0.4337681639,0.2324561858,-0.4119934746,0.0458294975,-0.3073709308,-0.1502428858,0.8502594623,0.437574633,-0.8150621887,0.1252799017,-0.6457203145,0.4212565212,-0.0314734398,-0.2811751345,0.7102689229,0.1254452314,0.7701263621,0.1112602094,0.7466168011,-0.857248324,0.4185571681,0.8797636335,-0.24323456,-0.0424105917,-0.6694822778,0.3092661117,-0.8446513557,-0.2916361321,-0.5768449178,0.2749724409,-0.2136249832,-0.1112290792,-0.2980183673,0.6512417522,0.706813667,-0.0544949802,-0.2596826065,0.0337040259,0.814007762,-0.9786579645,0.9294172007,-0.929155675,-0.3872887791,0.8418024524,-0.1854438157,-0.0425581967,-0.3778477072,0.4645856738,0.0950711697,-0.7270926052,0.9036047889,-0.7514826816,0.5787640774,0.7409571203,0.2460642798,-0.4855547263,0.1245942543,0.7913507449,0.7110020085,0.7753575731,-0.0190465455,-0.5351557361,0.4540318031,-0.3401850988,0.7736536444,-0.1476770613,-0.6554356247,-0.0774604945,-0.5810945339,0.9161905621,0.9721240542,-0.557814328,0.4387379098,-0.6156891129,0.5229120924,-0.0462671947,-0.198611384,-0.1648818827,0.9331462853,0.6098723446,-0.2720630169,0.6878288808,0.0333002469,-0.9223784378,0.4403372874,-0.8366744594,0.5662116031,-0.5333512391,0.5063277623,-0.5818456688,0.5614325145,-0.5025527472,0.2215808783,-0.4310921499,-0.1114110293,-0.8936083436,-0.5661888087,0.8272492676,0.486520995,0.5382552694,0.0464641231,0.8982393108,-0.4552724704,0.5130994999,-0.0709156126,-0.6181940091,0.2425757021,-0.5014163525,0.5819386943,0.2600989721,-0.3675071003,0.8078779646,0.4456564676,0.373034907,0.185082859,0.5042215463,-0.7744929535,-0.3867781764,-0.465795191,0.4643707514,0.3473335781,-0.3247556455,0.3315922515,-0.6172988434,-0.4073958183,0.5266240472,0.0550953164,-0.7013824635,0.866114392,0.1984431493,0.7258586281,-0.1413975359,-0.3334422993,-0.7974201382,0.9155266548,0.5320222832,-0.065188297,0.4916420491,0.8480849376,0.4961247252,-0.9139593945,0.446480592,-0.4498810129,-0.8196821123,-0.6737160548,-0.8044234607,-0.9304542298,-0.5686927714,0.3297076048,0.5233631138,0.4488517151,0.0759752155,0.2898878431,-0.1836774357,0.0010789593,-0.6849606176,-0.5719260297,0.9167310605,0.3007320212,0.8654815433,0.9310640112,0.9412705623,-0.8190927447,-0.8280966453,-0.9804014959,0.0130730249,-0.4494395951,0.8214988715,-0.5517338149,0.3630847894,0.6068134273,-0.5622438541,-0.5976345856,0.8445575639,-0.7813656834,-0.1149839143,0.1362719044,0.0594245535,0.580121701,0.5230122768,-0.9280538074,-0.7273093827,-0.8203595902,-0.9277934813,0.5837509075,0.1101562629,0.8127152437,-0.14084691,0.4228226523,0.1233565101,-0.3172014085,0.2572878899,0.9399295221,-0.3372663429,-0.9651685555,-0.7664883434,-0.736333009,-0.9334754791,0.6722508177,-0.9772502649,0.7748026087,-0.0480810357,-0.1943011752,-0.2109103656,-0.0713426755,0.833382523,-0.7981429015,-0.168521566,-0.7443438164,-0.552432794,-0.597548928,-0.2435241753,0.4567139679,-0.1468327989,-0.8412753439,0.1749364366,-0.6968084086,0.3187769947,-0.95423829,0.7260854455,-0.3584575083,0.7690704963,0.1085781446,-0.2258027439,0.9474575896,-0.1597492556,0.0184209653,0.6649295121,-0.8735730735,0.401590733,0.5457884602,-0.7263350535,0.577191799,-0.1292857683,-0.2787791336,-0.4701184934,-0.1433587077,-0.9331613298,-0.1186476612,-0.1820051329,-0.0597949166,-0.0360655386,0.9912598479,-0.9422767198,0.979791726,0.4950308813,0.3491681747,0.573017591,0.3978850329,0.4188398705,-0.9216956094,-0.8423985612,0.5820633486,0.3817517727,0.6773135597,-0.7685690951,0.1566403093,-0.328227642,-0.1231538617,0.7316072624,0.3095354774,-0.7106271551,0.3132740725,0.9695621167,-0.2494142396,0.5001591423,-0.2024499346,0.6690632087,0.2483797118,-0.289582651,0.3459181846,-0.0016684045,-0.5057260568,0.7604653257,-0.2513854268,-0.8754128941,-0.5761153405,0.8298628594,0.8475728432,0.9386313897,-0.2806941462,-0.9098288664,-0.8349010875,0.3217858293,0.6081552747,-0.0615822828,-0.9245213606,-0.3529205693,-0.3372582602,-0.5018926605,0.2483465476,0.4262626943,-0.4770777666,0.9234945298,-0.5954576735,-0.8244901303,0.947146758,-0.1062515505,-0.6422543828,0.9624350313,0.1716944378,-0.3036248434,0.0866954965,0.1900324983,-0.6368681182,-0.2074748044,-0.0145418154,-0.0631679024,0.1518773694,0.8652185807,-0.285961225,-0.0622570068,0.9641588732,0.639400124,0.8308644842,0.6211385544,0.3481646487,-0.9296565169,0.2328926401,-0.7862008412,0.5577097309,-0.6008614845,-0.0125084708,0.9215108191,-0.5753329753,-0.2945680141,0.5680485553,0.1095957568,-0.5456833142,-0.6514837359,-0.765615159,0.1213799974,0.74053243,0.5304371909,0.6058006449,0.7458136246,-0.1256539393,0.1403931864,-0.2567564632,-0.2006471133,0.1760623269,0.1241145717,0.4897966395,-0.6035966686,-0.4647812124,-0.3240339915,0.6737461547,-0.3084552003,-0.3203888465,-0.9437633433,-0.037675277,0.4721941069,-0.18003681,0.1874631621,-0.1676964104,-0.7105098925,-0.5581478433,0.4994595548,-0.288236784,0.2316153962,-0.4894847233,-0.6691176183,-0.9340485396,-0.1946878267,-0.0337413895,0.3208765355,-0.4243003019,0.4499011034,-0.2807241448,0.9397802556,-0.8734032453,0.2900980674,-0.533940697,0.3222891972,-0.6860129624,0.6535415517,-0.9578310323,0.3990830375,-0.7020362,-0.5184894167,-0.6064474564,-0.3314297799,0.7130394911,0.4928597884,0.823815477,-0.0523666208,-0.707021095,-0.4390404651,0.7142155801,0.2628836671,-0.0699958019,-0.426497128,0.4714260468,0.8396051419,-0.2442142391,-0.6922948624,0.8691877434,-0.5179580935,0.4172247517,0.7111016947,-0.558937408,0.4306815744,0.1540814627,-0.9579861419,-0.8801901307,0.4541707771,-0.4935009263,0.7869713874,-0.0985948111,0.739086373,-0.2888019166,0.3541187977,-0.8784585175,0.7026757358,-0.4837741247,-0.1393400804,0.2057121391,0.5770907481,0.2199911042,-0.0609123234,-0.4154776318,-0.8558951035,0.9162174299,-0.3461747985,0.8877925311,-0.0175915394,-0.6816914243,0.9783637673,-0.3118498982,-0.4422384161,0.2459697102,0.2422724076,0.5734345326,0.8845950095,-0.8148179373,-0.6682603189,-0.9218328377,0.654985122,-0.0899486152,0.5528169742,0.0638127779,0.7981112556,0.5489398193,-0.3374187465,0.488313096,0.9529564165,0.3519896507,-0.9999020763,-0.1817799431,0.3693153908,0.5543329382,-0.2910749731,0.9476373526,0.3353221524,0.685643071,-0.3608473343,-0.3738518826,-0.5515418378,0.9193930601,0.7911092564,-0.8681211935,0.3341787165,-0.8641329605,0.3390605071,0.4434551239,-0.8648659609,-0.0607559136,-0.0615621589,-0.1527283214,0.3625388454,0.8866459708,0.2058827166,0.9065738974,0.1952522486,-0.2811084593,0.7459770315,-0.1397299769,-0.7223493646,0.25884343,-0.5158557753,0.8663806765,0.7363212855,-0.8867563074,-0.9361955711,-0.5496293965,-0.4924966048,0.0807732808,-0.0175840788,0.2755915704,0.4142742373,-0.8503496877,-0.6875233509,0.3566739012,-0.8468247416,-0.0151397911,0.5972212091,-0.0157075996,0.6843149201,0.549612912,0.1297797775,-0.768611825,0.8722277145,0.6033665004,0.7887243424,0.6029165425,-0.5290197395,0.6977723225,-0.4588709372,-0.4315218329,0.5231756902,-0.049237639,-0.5409500386,0.0861658993,-0.2395032762,-0.7013378597,-0.5463078672,0.2940373203,0.1023266025,0.3030746288,0.6998334495,0.0317849252,0.5412355333,0.7866347358,0.4886088692,-0.9364422349,-0.2191683709,0.3506662902,-0.9312480169,0.1103197975,-0.504430727,0.8344007099,-0.2956822555,0.6216499073,0.0620327829,-0.3193652477,0.7124985876,0.8294516223,0.3677444283,0.5632788505,0.7774971506,0.3967916343,0.3532352644,0.5006375501,-0.2093265249,-0.9291603212,-0.1526554231,-0.1489260415,-0.930375542,0.0640608204,-0.9340394367,-0.2204906436,0.2531300572,0.8185392453,0.0909811465,-0.4352508396,-0.8615973159,-0.2403064757,-0.0397476365,-0.6266258887,-0.6816821966,0.3665274144,-0.9546407943,-0.418083139,0.5340593827,0.9395305933,-0.3493556336,0.6832265493,0.8104440893,0.1998759925,0.2084033093,-0.7145858134,0.2968589137,-0.8809930577,0.2884080582,0.2335877843,-0.0427719698,-0.0225637034,-0.1227230544,0.0773177472,-0.4160449181,0.054968234,-0.1570731949,0.3936506155,-0.2709857576,0.9947314458,0.5279194655,0.1179480291,0.1553344415,0.0999276496,-0.7658114826,0.3302621445,-0.0840569367,0.1303452099,0.4588109968,0.3311974131,0.6711217425,-0.9304037821,-0.7881553862,0.855258907,-0.5057264988,0.8408363346,-0.0916410079,0.4379366634,-0.668382698,0.6050301637,-0.9532122611,0.6698534882,0.3708265746,0.8592033841,-0.7085800006,-0.7284105624,-0.842140427,0.6022522014,0.1185279956,-0.0684005088,0.2063770326,0.0586172261,0.4556578049,0.2831922789,0.1697698269,-0.7516738724,-0.4055865421,0.7378530932,0.393191303,-0.3966529537,-0.5833717385,0.5889066254,0.3567852232,0.9673206517,0.9169240934,0.109335878,-0.1032213375,-0.0627690526,0.8865627448,0.506426804,-0.3634006399,0.1244544661,-0.9982620318,-0.3629153837,-0.390762853,-0.1785779225,0.4505602864,-0.3238222891,0.2841337781,-0.9778716078,0.8897713231,-0.9459710217,0.7295954777,-0.5829251841,-0.302051755,0.3028183731,-0.0593058604,-0.3780848473,-0.2136843771,0.1477944514,-0.4436861931,-0.5213845371,0.0979172788,-0.7994580027,-0.9480390466,0.7503330951,-0.4785712272,0.563058456,-0.8651743928,-0.6673072406,-0.3890136307,-0.6577484796,-0.773596343,0.5800613037,-0.6607111603,-0.2677959061,-0.0898497425,-0.7378571749,0.3744689521,-0.5187539905,0.1771586473,-0.4004384961,0.8051842488,-0.0403076231,0.1964057652,0.4503637369,0.0063559706,0.3316623482,0.2261969779,0.4300492126,-0.8063586784,0.3150530947,0.9013739493,0.6888375533,0.0273912735,0.2540087173,0.6261537136,-0.8729122484,0.6876648039,0.6435934392,-0.9695903058,-0.6768093157,-0.4009817464,0.75554534,0.1111822053,-0.3468829212,0.7488912315,0.670387619,0.532961312,-0.1174770822,0.8914549872,0.9145434818,-0.2829302374,0.6687459571,-0.6207557692,0.6852816116,-0.4537345248,-0.0716612124,-0.2574458261,-0.5153286638,-0.5693535836,0.8951529715,0.9015105681,0.5465315746,0.8697935306,-0.4624473501,0.991616982,-0.5142545365,-0.0014275854,-0.9809348919,0.811808841,-0.7766732778,-0.9080834847,0.4446974373,-0.4111901368,-0.7152180996,-0.49920447,0.8314300384,0.3351917232,0.0704043451,-0.5039398027,-0.2019405728,0.1772951227,-0.0415786668,-0.7060569627,-0.8852596791,-0.9958711047,0.5537746545,-0.1278978741,-0.4506973582,-0.5880521737,-0.2008259865,-0.5937250593,-0.368189171,-0.6026555772,-0.4875668648,0.8842560926,-0.1525177367,-0.1842608982,0.8875019229,-0.2765405523,-0.4719564398,0.1956228289,-0.8697705259,-0.6290726618,-0.4930883285,-0.4243149197,-0.4991643877,-0.0095388824,0.9088795155,0.0599437986,-0.1938402209,-0.2544056432,0.6649064437,-0.8768258474,-0.3482272319,-0.6324858684,0.5384883673,-0.1606228393,-0.6081669299,-0.4040745452,-0.4391955778,-0.1930750909,0.8642430037,0.2670596335,0.6993146389,0.1772109545,-0.6428487242,0.0463250686,-0.9541731018,-0.4486158184,-0.6223691288,-0.9337987684,0.1018861789,-0.2015513353,0.9476773734,0.7259178976,-0.7232698518,-0.5854116069,-0.4545379747,-0.5770099383,0.061480631,0.3518176716,0.0784392884,-0.1446490899,-0.6969458384,-0.1385057183,-0.6912562575,0.8543862746,-0.7204222035,-0.7015341232,0.9884493534,0.0533912208,-0.1654918037,-0.0041982598,-0.2000422185,0.031482643,0.403536201,0.5876933146,0.8737744633,-0.7070554537,-0.8386326736,0.4608435685,0.0316386759,0.1381853474,-0.0015199737,-0.4399059789,-0.5761136101,0.7915029737,-0.484646474,-0.3289965787,-0.5203530718,-0.316098279,0.7919971672,-0.8570780453,0.5754390235,0.0097430208,-0.775421127,0.7548341437,-0.5770442592,0.666169313,0.8117826354,-0.4018716556,-0.0570925747,-0.7797875112,0.8322100834,0.4682230773,0.533885501,0.1865991257,0.3020414551,-0.0720020273,0.6300441512,0.5602531582,0.0446786485,0.5327520376,-0.3449491212,0.837684502,-0.5159890606,-0.991861004,-0.1824721681,0.6098116644,0.646807117,-0.1737145418,-0.5549317687,0.2807702094,0.7978889699,0.657178749,-0.0389599549,-0.3456450992,-0.4143422902,-0.0822012462,-0.3979771183,-0.3645619032,0.2418143633,0.8706929825,-0.2389921534,-0.9511925248,0.9270857917,-0.9393017175,-0.1496418437,-0.8001534204,-0.013041402,0.9141411827,0.2705584569,-0.9206978,-0.7735946531,-0.6396350618,-0.5066323978,-0.7170262761,-0.6419885206,0.0007191847,0.0642477123,0.5976492551,-0.1128073455,0.132768729,0.0720913547,-0.6916921208,-0.459934305,-0.703617005,-0.2292125006,-0.2838008635,-0.6999581496,0.8479087852,-0.9141556309,-0.3982054104,0.1062114311,0.0152374892,-0.6173516733,0.1255891331,-0.3660644148,0.561090175,-0.7015943366,-0.2086447344,0.3423805641,-0.7970952811,-0.5518698534,-0.9136024614,-0.5898315113,0.6119474359,-0.1695974384,-0.0112210745,0.0227647113,-0.1686108908,-0.8048687676,0.0771148999,0.3494162196,0.8372146391,0.7903703649,0.1031508742,0.8300372319,0.8457593295,0.7712308466,0.2753429483,-0.6434590981,0.770151097,-0.0456839653,0.3284300969,-0.0000181869,0.5814809284,0.237156786,-0.376869838,0.7196582182,-0.9639950594,0.0755837283,0.4667702606,0.8432484388,-0.2114243646,0.0022755603,0.5176345707,0.1530251304,0.8639313556,-0.1557936544,0.1426606136,0.3530553315,-0.4240695612,0.0160365624,0.4426145568,-0.7817136779,-0.9260993373,-0.8150619398,-0.631803674,-0.9021569804,0.2063054413,-0.0103036086,0.1093741993,0.4189991011,0.241564857,-0.7222915639,-0.7069547664,-0.9045480954,-0.6458218925,0.1992402906,0.3814780914,0.8696309703,-0.1267540601,0.0473297747,0.2103088876,-0.3513761758,0.568041406,-0.3477730627,0.9433203332,0.5960514086,-0.04335017,-0.8144224829,0.1241425762,-0.3059561186,-0.7375953618,-0.4774668783,-0.7019306965,-0.6468250464,0.9661431224,0.890143357,-0.422694711,-0.7506108604,0.8014688165,-0.170537288,-0.7782848607,-0.6760852454,0.7286068981,0.2230076285,0.4894686889,-0.7980702039,0.2456092682,0.4190822573,0.8001487213,0.617389036,0.0451042418,0.3758582777,0.3453343923,0.5967101178,0.6510937017,-0.8364751658,0.3586380821,-0.6328149755,0.2803446543,0.2171581057,-0.5269182046,0.498741011,0.1813080822,0.2344883021,0.1186162667,0.9330013367,0.0293548401,-0.6149007772,0.046410953,0.4690778589,-0.1726930338,-0.5162586983,0.2952759555,0.99313827,-0.4008630243,-0.9999798942,0.2483753242,0.3503712603,-0.1947628074,-0.1261905109,-0.8643058832,-0.6841413298,0.2952274124,0.3453852102,-0.6195285998,0.5188279599,0.7251844988,-0.3203731145,-0.6468046534,-0.5517527348,-0.2997632871,0.1074676761,0.3975445166,0.2867605736,-0.346324245,-0.6108104584,0.4829882018,0.7942136227,-0.3711452616,-0.6401603469,-0.7861160249,0.1325763328,0.0660824455,0.0471367181,0.1098887685,0.9913143709,0.796108252,-0.8970063486,0.8834062911,0.897025953,-0.9419618708,0.831326912,0.8801028728,-0.252459637,-0.5983868599,0.5685062243,-0.2531323442,-0.1914033249,-0.7782689255,-0.9234539208,-0.141442873,0.0653794157,0.6536594004
   0.4515629503,-0.5953596894,-0.008879593,0.2827439051,-0.9679380582,-0.0935716411,0.6156923529,-0.8362819505,-0.90811752,0.2201237652,-0.3757602676,-0.1357313205,-0.9569887442,0.4348736435,-0.5411676375,0.53979835,0.0179549844,-0.634657053,0.7948662955,-0.8842859925,0.4196607901,-0.8943580489,0.5773815919,-0.231265262,-0.1091083434,-0.4820109379,-0.182997119,0.8622440452,-0.8363985497,-0.3771029298,-0.5979887314,-0.0145142091,-0.3510687508,0.4710022159,-0.7891092832,-0.962592326,0.4219341958,0.3067320649,-0.1825733213,0.040306596,0.2994390718,-0.6630427461,0.8979468309,0.1081353841,-0.7193664806,-0.3003484479,0.5932440809,0.2416202039,-0.9838260144,0.2857575775,0.907209626,0.7376319802,0.2857106188,0.9737095541,0.0974000969,-0.8532216508,-0.0544969118,-0.2229892835,0.9638186829,-0.7799182145,0.3688548647,-0.2572627317,0.3497154451,0.3651299219,0.4281889011,0.3747543309,0.6553806438,0.7004491812,0.2837350532,-0.2015954829,0.3885071464,-0.8945457768,0.3551259475,0.2408582707,0.3182248475,0.2497116411,0.8195750227,-0.2617337908,-0.8126185667,0.1369001695,-0.0649033912,-0.6975119908,0.8530215278,0.1880253323,-0.248563397,0.7360595114,-0.7031178075,0.2958006107,-0.7639566628,-0.9916734599,0.8361184982,-0.661486205,0.2799493015,0.0715949037,0.8442507322,-0.8916178505,-0.4182968889,-0.4188739148,0.1793765362,0.7858384756,-0.4158220262,-0.037118835,0.7737082758,-0.8114050754,-0.1748641402,0.1491516376,-0.2282497175,0.3832468363,0.0995564667,-0.5960333241,0.5973281066,-0.0002763354,0.615986841,-0.2604972645,0.6983143703,0.89881186,0.187495548,-0.9617384274,0.6504868486,0.0150097322,0.8389528142,-0.5407322863,0.3502327937,0.272294772,0.4565936068,0.2033112103,0.3296637017,0.2283103809,0.4339214207,-0.1881021822,0.3106697265,-0.6990138742,-0.101644237,-0.5934719513,0.3857055549,0.4021695787,-0.1088730699,-0.9719632982,0.7107082523,-0.4303739553,0.7136123282,-0.7796860828,-0.2255562925,0.4528756559,-0.3885747756,0.8425924223,-0.3652289446,0.8949245045,0.4775275267,-0.3687168985,-0.3574271343,-0.1187424155,0.9756071238,-0.2315953578,-0.7626233314,-0.7269081125,0.6901428556,-0.3394984234,0.4570548393,-0.8535206703,0.2949410961,-0.4329555967,0.1788126549,0.8873846035,0.4779426563,0.1703027057,0.2191178853,0.4049909555,0.7792694616,-0.44022726,0.1360750705,0.7499601677,-0.7008207821,-0.2299669956,0.8642194431,-0.9950524007,0.6406030326,-0.8409185655,0.468784097,-0.9302873529,0.4456487564,0.8608188113,0.6882202247,-0.8697788276,0.6221141634,-0.3529059971,0.4050698197,0.9709285015,0.534134636,0.7578530979,0.9037667826,-0.5123144515,-0.6542799667,0.6324903452,-0.2248381133,-0.4846153037,0.0820218371,0.8431195101,-0.1815866327,-0.1065848784,0.8256900884,-0.6647509047,-0.5942465744,0.4287896928,0.7159468032,0.4133280999,-0.782143331,0.7322504273,0.6288968444,0.3506561528,-0.1345223732,0.7850456514,-0.2823251519,-0.8115352324,-0.0385945289,-0.3472056163,-0.4894215271,0.4260352138,0.1976141373,0.725274692,0.4980798226,-0.5651321963,0.0995485028,0.2055417411,-0.9503414614,0.2212091585,-0.7562954896,0.0514879541,0.2927669813,0.4959422172,0.166753727,-0.5238813951,0.14028686,0.9738031178,-0.0410360312,-0.39244795,-0.9849596684,0.6791190086,0.4529060947,-0.6509381106,-0.4033453204,-0.5372275041,0.9084148876,0.9385780742,-0.3215159644,-0.3394764365,0.4636074596,0.6431318485,-0.2496199097,0.9384701187,-0.8686108602,-0.3856743205,-0.249592023,-0.7326544078,-0.3178777133,0.0463089315,0.2609742938,-0.762741855,-0.6312312294,-0.5706019326,0.1854048747,0.1700062737,-0.3495480345,-0.4256791038,-0.4100154081,0.6676399748,0.2905199062,0.457280092,-0.3578106192,0.4171447817,-0.2235467785,-0.7254540697,0.2798375605,-0.3263573614,0.0538209435,0.9112852235,0.9634724689,-0.6149461577,-0.6345920185,0.4811339478,0.3770866897,-0.0952986621,0.4088525335,0.8400585049,0.0010375182,-0.765358984,0.9093279732,-0.8638932616,-0.6045556577,0.7169881384,-0.4375159123,0.0812250046,0.5252031087,-0.5305753939,-0.2205209798,-0.1542597915,-0.3983757155,0.5471895499,-0.9657046604,0.9309924003,0.9756018855,-0.6857450154,-0.6128529913,0.7032391883,0.1974204307,0.5882305824,-0.6623067567,-0.4872230851,-0.7063636671,-0.5081804693,0.1944231623,-0.5596105984,-0.413338705,-0.7640288005,0.225787047,-0.5908942403,0.9230402023,0.7478456108,-0.0974660346,-0.2176708733,-0.2952692159,0.709758174,-0.5681754483,0.6165780743,-0.39123439,-0.7497508742,0.7424964184,0.3744628554,-0.2430457131,0.1986337737,-0.8849794424,-0.4168186344,-0.2340521148,0.3180585251,-0.0634776795,0.9892875142,0.3968462382,-0.5111242535,-0.3211146808,-0.0543772765,0.3046359851,-0.8882104101,0.0367126588,0.991210286,-0.9861011523,0.7629474963,0.7476494999,0.7477104303,-0.1591705889,0.6714950823,-0.2431278665,-0.8719269251,0.7089089183,-0.1103070302,0.2992979731,0.1299841205,-0.0041636346,0.9320236065,-0.763012431,0.2075509601,0.2017021469,-0.4449103791,0.7750002249,0.9544337762,-0.6371945145,0.5275068962,0.3583607386,-0.0449337064,0.7387251081,-0.0222333914,-0.3780133702,-0.1845961428,0.1022932832,0.1791238612,0.0914910381,0.6644324149,-0.5768072931,-0.089346606,-0.9095940627,-0.0675343987,0.5015623011,0.163284189,-0.4695423808,-0.2519535157,-0.5700651117,-0.502926115,0.0015267567,0.7726270733,0.3278374437,-0.7004903928,0.2209337344,-0.0323892377,-0.4052401569,0.0757392192,0.0322810663,-0.8890313418,-0.243169128,-0.3790072256,0.8243154438,0.6757510169,-0.8036155494,0.1701579376,-0.0364720435,-0.2587562805,-0.6632706559,0.1347484946,-0.3276057655,-0.8854013577,-0.1648389633,0.3050284312,-0.2712452781,0.4410556283,-0.4755860905,-0.7150954511,0.4011993025,0.7443367468,-0.137837188,0.3120846795,-0.9383667404,0.971210941,0.3722940776,-0.461852427,0.1929329993,-0.288789393,0.8678202754,-0.0983207074,-0.2243827413,0.2140186403,-0.973479426,-0.7029045555,-0.7141965383,0.085332393,0.4159176152,0.2020919241,-0.2960251322,0.3227616262,-0.5150440433,-0.1571034439,0.2569336185,0.8295358905,-0.3051097361,-0.6003523996,-0.3788023291,0.2669340704,0.9448966344,0.8896725538,-0.6806899889,-0.4597300015,0.1401148915,-0.8334411434,-0.9159135272,-0.2689855826,0.2982469107,-0.3047956785,-0.0346561793,-0.5883697252,0.6704998469,-0.2478635614,-0.774237719,0.8458200427,-0.3603482538,0.6292019349,-0.5782621613,0.2929321863,-0.0443545062,-0.6202444645,0.5650663483,-0.363230183,0.0182163387,0.662689178,-0.7650776117,0.6376758009,-0.894997304,0.4067762406,0.3284766511,0.2827242099,-0.070230889,0.5986769156,-0.1029688505,-0.7736848635,0.2172574232,0.2640274625,0.6512194081,-0.6596870239,-0.0163823002,0.9316726506,-0.4260660044,-0.5340354565,-0.4764134625,0.7943510516,0.6126157321,-0.5740969258,0.3615678378,-0.6371524904,-0.7146328894,-0.3280136306,0.9436018308,0.4483508648,0.2666098738,-0.7791366977,0.9797380109,-0.6197521077,0.3625152268,0.021790433,-0.3674639396,-0.9263460146,0.3412599153,0.6927228615,0.563392553,-0.6240553779,-0.7788475042,0.0094584414,0.9713029213,-0.2091839995,0.2445881667,-0.4250872995,0.0580638714,-0.7155772254,0.0380731304,-0.5432611966,-0.2395433722,-0.041654055,0.8260771804,0.6182878876,0.2112372197,0.2055807074,0.5369169305,-0.8911783286,0.0659611157,-0.948063763,-0.7562910871,-0.4399847942,0.8262530439,0.5578204994,0.8671562304,0.2644531369,-0.2408001333,-0.8899391505,-0.7043688915,0.0411572765,-0.4840319188,-0.8302069413,-0.9295502492,-0.5140800642,0.015693294,0.4854322075,0.1880349334,0.5035092332,0.7081409503,-0.6310693021,0.5476787457,-0.0944561605,0.3327244013,-0.0401813586,0.6201765601,0.7847426435,0.3833913752,-0.1254491894,-0.1596300095,0.1283031477,0.5523846696,-0.0119913206,0.1541635454,-0.2999877535,-0.859044756,0.8310127257,-0.7125022232,0.2761835752,-0.9215748793,0.0736410965,0.8410066525,0.1379505313,0.0433137305,-0.0632425809,0.6168664456,-0.2979892117,-0.4597028832,0.1370722014,-0.116319401,-0.7338662941,-0.635613127,0.9600309779,-0.0620428839,-0.3834943854,-0.1388052898,-0.4477451963,-0.9920734349,0.2384932895,-0.0516799643,-0.7976749134,-0.573623585,-0.9172044842,-0.5511178424,-0.3607059163,0.6739225417,0.8811745753,-0.9593946864,-0.0590443441,-0.8027680782,0.5663344726,0.3523409932,-0.9341665777,0.0873289631,0.3193304065,0.1222196608,0.2673230258,0.2416671994,-0.6842780251,0.0082319225,-0.4873326383,-0.6516392355,0.0626493141,-0.7864003174,-0.3549537774,-0.6655366224,0.5187247483,0.1869453663,0.9478357684,0.9876795665,0.2738897998,0.618420349,0.9478774733,-0.0466957484,-0.7065960166,0.7170235574,0.0330999284,0.9222707902,0.5919924708,-0.9502720266,0.2247897932,-0.4663646124,0.294055571,0.4184628022,0.5088757191,-0.2862276816,0.5931276079,0.7462771503,0.844183473,-0.9462317438,0.0392308121,0.5390542774,-0.4912947566,0.5980487054,-0.8516897677,-0.1003515805,-0.7339512226,0.5892707251,-0.8645292354,-0.225613245,0.3346762648,-0.8841544415,0.522261421,-0.0531289298,-0.1769463676,-0.2366259092,-0.2830409414,0.1172816458,0.0194954676,-0.4040982948,0.8055982201,-0.0510812164,-0.282935698,0.3930811618,0.2950488981,0.0654742364,0.6957828603,-0.1146873518,0.8010813576,0.7615173127,-0.876527099,0.6192258891,-0.4049829457,0.4853648615,0.8041428328,-0.5934496978,0.1633709704,0.3255079668,-0.1306896903,-0.8628676581,-0.6717469241,-0.4977759431,0.1479085996,-0.9959604798,0.5190227121,-0.4379728305,-0.2153972229,-0.2768813182,-0.2011905362,0.8284688247,0.3366494754,0.1010310155,-0.1639365314,0.9928927393,0.6949742167,0.9868065911,0.8910998139,-0.0632176226,-0.1956921797,0.3234529181,0.6412326749,-0.1541030079,0.464817678,0.1191871833,-0.952981216,0.714921334,-0.6830359569,0.0846955504,0.2152354118,0.2631548127,-0.8143704609,0.3505207352,0.8150144087,0.1309876397,0.7521252579,-0.7884350249,0.8770323206,-0.8515168221,0.7059125567,-0.602429759,0.7981588681,0.8003742837,-0.5153916764,0.4965759304,-0.8664339042,0.4736274503,-0.9717155869,0.6767194368,-0.062829944,0.1446958496,0.2447495693,0.2643490415,-0.0634225496,-0.4275144346,-0.067416896,-0.8788991398,-0.1782481268,0.1556234934,0.0705150642,-0.335622292,0.1520930982,-0.6267197239,-0.0223390555,0.9630568583,-0.3211822555,-0.3339074571,0.13030841,-0.3225152876,-0.8130457498,0.4138683177,0.2267551318,-0.0231461295,-0.4859306441,0.6273833309,0.3498191654,-0.9606072247,-0.7559768077,0.3828706997,-0.1408126277,-0.090707972,0.4179417955,0.0343128493,-0.3626899594,0.1435022419,-0.2902409951,0.4134726035,-0.2695342032,0.730506529,0.3165339518,-0.9043799828,-0.7932992529,0.3779889776,-0.4095939099,-0.1743369559,0.4169614788,0.8044474143,-0.0236227043,0.6799252476,0.5646166475,0.1618580457,0.9269868253,-0.1908405641,0.7295471736,0.1656981801,0.584428133,0.4672504012,0.9231251413,0.4434994056,0.2223965925,0.6191268347,0.9616578436,0.4791379499,0.5649191197,-0.4278218961,0.0983207563,-0.0386192661,0.2736930938,0.9109835936,0.18282153,0.8088412969,-0.1088251416,-0.4084082155,-0.9073087522,0.1435142283,0.8474455061,-0.966613491,-0.1686083199,-0.3811640974,-0.1673881288,-0.0452510783,0.8408271649,-0.534429592,-0.3907818016,0.0254611515,0.3390396143,0.6338400275,0.7936514483,0.5867762954,-0.3436056181,0.8460132409,0.801231418,-0.2823299473,0.7272711112,-0.4988955762,0.2669552701,-0.0111733954,-0.2625788003,0.4613988703,-0.1666302133,-0.4995612186,0.2597302574,0.8983442795,-0.9036197345,0.5963898668,0.7329910686,-0.979575146,-0.5845016539,-0.4630258492,-0.5768896895,-0.3934902928,0.2157402495,-0.4664757428,-0.9216955606,-0.325543859,0.3748905827,0.7457245416,-0.1142003511,0.0639252486,-0.528127914,0.4471943477,-0.2104165482,-0.50869929,-0.956445305,0.7528393032,-0.3693402176,-0.9685115312,0.5911835754,-0.617588127,0.5094494024,-0.1091261739,-0.1687228974,0.6542251331,0.1797018994,0.2566933741,-0.7750058333,0.5918446077,0.525296596,-0.6590454972,0.9050888259,0.9096571385,0.5228579814,0.7120328323,-0.9669951722,-0.3623395853,-0.3229315348,-0.0610821523,-0.8291274085,0.2972756734,0.9909973327,-0.6079717465,-0.0590865404,-0.8557731724,0.5435750963,-0.087304191,-0.5866035586,-0.1492306493,-0.5987984801,0.6119945377,-0.8480744047,0.324164928,0.4593196388,0.196323418,-0.8524892734,0.7331797305,0.9663158182,-0.0851306301,-0.8649154956,-0.3407124852,-0.6162989599,-0.6464035136,-0.510822832,0.3690779184,-0.1242777394,-0.2220291576,0.3269882959,-0.4008045034,0.2427956999,0.590912189,-0.1438725993,-0.847654935,0.5082613923,-0.1620595397,0.7970879559,-0.3744358176,0.6135449292,-0.888306675,-0.9730255608,-0.4272263616,-0.1108662427,0.1099845836,0.9480421738,-0.855098166,0.3187661046,-0.4411947823,0.6971260292,0.6982913356,0.3804406189,0.7837968981,-0.3215302763,0.1914398798,-0.0831293849,0.520095554,0.8823060651,0.3894852984,-0.0300784481,0.1125047661,0.8236576488,-0.6507724765,-0.6984413889,-0.3727807114,-0.0677061813,0.7022265541,0.6773384024,-0.8643385049,-0.3507462481,-0.5884429744,0.2622803243,0.3877307464,0.4081116896,0.3332874913,-0.7987227697,-0.394121109,-0.8157227194,0.4906805982,-0.3772711188,0.7833217315,0.3807106138,0.6550100831,0.2950474929,-0.8892414631,-0.6901526215,0.7967298321,0.8236969633,0.2570365684,-0.1515158387,0.8246785821,0.7910377207,-0.507849382,-0.1077123042,0.6951541956,-0.6096626765,-0.320145005,0.7422522248,0.588718935,-0.916848231,0.5456999233,-0.8606961688,0.8073109866,0.2896110519,-0.1289842939,0.4968337489,0.7446875281,0.5400403367,-0.9789230024,-0.3269680405,0.0865696702,0.0576546023,0.2202875815,-0.4660962356,-0.02287536,0.7788680615,0.4455159401,-0.3950487101,0.3818773913,-0.6926706768,0.8229878951,0.179592576,-0.4377758937,-0.353989267,-0.1815588278,-0.9745610388,-0.2097123916,-0.4433540913,0.9855244216,0.7667620473,-0.6275300941,0.6274931848,-0.9152677462,-0.3314042865,-0.9597148804,-0.6033773052,-0.9505892506,0.529517604,-0.323431981,0.2917542736,0.6417943318,0.5510303083,-0.3544674171,0.3916103377,0.498899297,-0.5395886279,0.4573467445,-0.037042072,-0.6382494422,0.7050210879,-0.098490807,0.0556962282,-0.7236431672,0.0613103145,-0.664166428,0.5282715289,-0.2161313482,0.7886091191,-0.4069721506,-0.3451045674,0.4406401563,0.4243607098,0.6972029539,0.9439542106,0.6644698619,0.5034368092,-0.6141037836,0.6901935203,-0.5607237114,-0.315450783,0.9398323595,-0.6985635975,-0.5377313002,0.1041532153,-0.0462204917,0.3023495451,0.4706904573,0.4588129676,-0.427780077,-0.2215312771,0.1052626772,0.3113145547,0.9076492967,-0.0813457865,0.9496635752,-0.3432655676,0.6229003736,0.006832056,0.7854885112,-0.0253837454,0.5153427412,0.4547202647,-0.0065160801,-0.3002085487,0.847066092,0.8830738681,0.8552094286,-0.6686395563,-0.5191409976,-0.8567321977,-0.6734197462,0.9588746951,0.214340593,-0.3135562972,0.9335305134,-0.2518558693,0.5852695314,-0.7582056018,0.4444953499,0.325289078,-0.805808453,0.9921672432,0.9136512126,-0.1735656802,0.7762899146,0.5335576127,-0.6526964107,-0.4312411245,-0.4938674659,0.4336392356,0.9234288349,-0.3786939397,-0.9907711256,0.5964562731,0.111091553,0.1404985955,-0.5482625006,-0.1988002529,0.0886545727,-0.0471275739,0.2752319325,0.2478743879,-0.3378141305,-0.6995128535,0.5354642206,-0.4122439422,-0.947350592,-0.5046300642,-0.817897243,-0.1686924669,0.6895534673,-0.2539889485,0.7218371684,0.5148369542,0.5958667364,0.0583463401,0.9133955106,-0.6538526887,0.400234721,0.5525059009,0.3702693945,0.9241144378,-0.6795681246,-0.0869981959,-0.2767829369,-0.6056833593,0.312921346,0.8872265664,-0.3857315113,0.7266237666,0.1659636304,-0.218217849,0.9006067485,-0.9975342324,-0.0238867386,-0.741659521,-0.5315371758,-0.244258265,0.5338812302,0.3194525276,-0.316313247,-0.0043557152,-0.5206952144,0.356357769,0.2839531644,-0.8531161535,0.2833623369,-0.4827576554,0.0865552119,-0.0225242125,0.0249767782,-0.0151213024,-0.7764615218,-0.5892509112,0.0860269343,0.4363670393,-0.037074798,0.0999156638,-0.8602892698,-0.0344872724,-0.6918349426,0.4817395735,0.6808241175,0.5570607739,0.1768941993,0.966973308,-0.3890628124,0.0893022708,-0.1974250733,-0.2031613851,-0.8497559258,-0.0924392395,-0.1516100751,-0.035223211,0.3653509859,-0.771056965,0.1213814928,-0.8712688155,0.7338477734,-0.0264311725,0.4029933073,-0.260257874,-0.5492667719,0.6385792725,-0.0866663033,0.1279387911,0.9320482784,0.2641076907,-0.847093936,-0.3754622932,0.3576645023,0.891796602,0.3984096126,-0.7574246579,-0.4496867352,-0.1118340232,0.9432314911,-0.8241320727,-0.1209373386,0.4830391547,0.5295611818,0.5409788211,-0.4610744441,-0.8030640704,0.8852156129,-0.9266112522,-0.267591093,0.4917924265,0.8314247333,0.9875242345,-0.1392652578,-0.569809437,0.9740436481,-0.9527826582,-0.8153600159,0.2487991139,-0.8300531932,0.7825748882,-0.5324042127,0.308253495,0.0516452567,-0.1552621471,-0.6696584055,-0.1543494636,0.6706801251,0.3356991626,-0.3006161669,0.9844673258,0.008206202,-0.8880424133,-0.6230041541,-0.5530347921,-0.572362472,-0.2121205502,0.8666342453,-0.5019090778,-0.7341728337,0.3472130569,0.3954186002,0.4875897231,-0.7331031989,0.7923787448,-0.2931488435,-0.4371097942,-0.04188493,0.6727040503,0.8079435836,0.0139975207,-0.3525482471,0.3857392923,0.987390492,0.5091219426,-0.9040229186,-0.1871324501,-0.3054741484,-0.0068756458,-0.0836168953,-0.4166371324,-0.3817166802,0.7407169221,-0.8599943487,0.7152193108,0.6145350348,-0.8215970809,-0.960336821,-0.0552032005,0.8055053893,0.8480053255,-0.7750033786,0.1133266763,0.0328609677,-0.0124816507,0.5763854838,-0.4802092846,-0.4264188064,0.1604291504,0.4449749019,0.3206908076,0.1735777177,-0.5635305906,0.2370553576,-0.8731621734,0.3097604326,-0.7316765968,-0.1155477073,0.6426924308,-0.4451643528,0.6034825256,0.4022470469,0.3131946088,-0.6011261968,-0.0703742581,-0.3064613893,0.0573846504,0.4405131367,-0.6712032695,0.6510123506,0.8269438619,0.4507360556,-0.8609891174,-0.7091188886,-0.7124358134,0.5168047697,-0.2682794069,0.1722419888,0.696759503,0.626045114,-0.5182078424,-0.3589199502,-0.0131259284,-0.266380938,-0.1486982349,0.3811411331,-0.4724946911,-0.2467070542,0.1802277751,-0.2310471688,0.794738302,-0.6132764896,0.7993846462,0.0307480001,-0.2645091474,0.8471768934,0.9268365048,-0.337355371,-0.7623581502,-0.9319359592,0.1404650297,0.9329379844,-0.978884012,0.7114200071,-0.4703820088,-0.456779873,0.5943735047,-0.987964399,-0.040716898,0.5708855247,0.3895125381,0.6687014168,0.3562910335,0.3378391944,0.879823684,0.3534289193,0.0132195764,0.4793198554,0.1754289432,-0.0389319005,0.6898068579,-0.6748322591,0.6886280768,-0.1823358401,0.4510361979,-0.8085789215,0.6778723294,0.9242292397,-0.8385941591,0.2583302474,0.6717510091,-0.3739385912,-0.7776904631,-0.9253636613,0.2827194366,-0.7649154776,0.0380252776,-0.905046241,-0.4958542423,-0.0889763938,-0.5258206444,-0.4947406879,-0.379273344,0.5853917104,-0.7120947243,-0.626418829,-0.0144412729,-0.7878210631,0.7332693679,-0.7138547771,-0.9087084674,-0.2155075028,0.5256752226,0.3742813208,0.2210187777,0.4613111096,-0.0858551911,0.0339085558,0.9003927976,-0.4261435223,0.6028911088,0.1498865835,-0.9688427475,-0.1566090956,0.8423904013,0.1735908174,-0.7457175244,-0.4423238481,0.1925635161,0.6487954265,-0.8320911313,-0.5445481982,0.1813462298,-0.562926791,-0.4262809702,0.2901847017,0.5498085305,0.106028753,-0.7606732122,0.9794454166,0.6236968148,-0.3413418676,0.3657549175,-0.5820266132,0.0992830928,0.0291262274,0.0284139749,0.9104323684,-0.6136567392,0.3509663698,0.266731795,-0.8830648541,-0.4826208495,-0.2118357991,0.1031142494,0.8095840914,0.8455841181,0.3492527928,0.5999240895,0.3239418508,-0.4189787129,0.9133877512,0.3574631526,-0.6254610628,0.7799267358,-0.8981400785,0.2591026592,-0.7740146023,0.2374135677,-0.3586550482,0.4026277901,0.9694290851,0.5184183918,0.8294375864,-0.6661018318,-0.1464078195,0.1450067641,-0.5676218398,0.4473817482,0.8965538951,0.9781452022,-0.3220101432,0.0809796209,0.4519193502,-0.4492004961,-0.1028135064,-0.3188452462,0.4658654119,0.3274816597,0.36242912,0.8786844998,-0.2644116784,0.2930317985,-0.2324577279,0.8689680176,0.4762048425,-0.8862253346,-0.6420762313,-0.8715576431,-0.8847923846,0.3213812471,0.7468229298,-0.2438537213,-0.5139226682,0.1484297297,-0.691719945,-0.0810952867,0.9295677769,0.3961996646,-0.0599794108,-0.322981213,0.9356598265,-0.4895847684,-0.9580272463,-0.7303476909,0.9517090454,0.4970324566,0.2344359784,-0.2209206195,0.4291925114,0.9347194047,-0.5690073957,0.7542300773,-0.9032065723,-0.2770205066,-0.9930918169,0.06105238,0.6743816048,-0.1368966846,-0.3389207253,-0.8275567162,0.2058371314,0.5851250827,0.5064454364,-0.6241480212,-0.3030222757,0.8819921472,0.4264613095,-0.8115591709,0.6816888817,0.3855645172,0.2483260404,-0.7157482756,0.4997553971,0.2151989444,-0.8684945482,-0.5817355437,-0.1406001782,-0.1589426913,0.8964283748,-0.7008358553,0.6330679193,0.7553674794,0.6608128729,0.2872959882,-0.4828695726,-0.7327832839,0.8579870363,0.4455144819,-0.0845371682,0.7428687781,0.4913132534,0.8876698312,0.1016375677,-0.0482885865,0.4345066166,0.6818110622,-0.1650723389,0.7557672657,-0.8932767743,0.6550761552,-0.3827055346,-0.1605590759,0.0076395501,0.9563615195,0.416328007,0.3466442935,-0.4110912353,0.4121611748,-0.8125261169,-0.3948213403,-0.8831126526,-0.564327952,0.8800693362,-0.7723165575,0.033835952,0.5606117216,-0.0622939031,0.9314978821,0.7766525373,-0.4190147398,-0.2621472669,-0.9138375407,-0.206457457,0.2978267972,-0.906831264,0.2102353048,0.7413198592,0.7763314743,0.4953056738,-0.850002713,0.8567042465,0.5401228123,-0.1634166065,0.2548708904,0.3835744111,0.3821531408,0.4228840456,0.8145711158,0.2636900725,-0.0709827344,0.5164023255,0.2079250537,-0.4324023892,-0.0985141085,0.6116819325,0.5612357592,-0.6375385736,0.1481076916,-0.8607523937,-0.2102617581,0.6541302717,-0.9994902613,-0.1761239609,-0.4847472053,0.6781329574,0.7855285391,-0.5750370122,-0.9107494037,0.3121576189,0.2698330402,-0.0178306656,-0.6481177641,-0.1477809847,0.2753637582,0.3372795079,-0.3096303401,0.5346758925,-0.0397803842,-0.0679920763,0.9004933889,0.0912444248,-0.3016692204,0.9451178075,-0.9423202184,0.0792445997,-0.9120940032,-0.6869967415,-0.6321000967,-0.0200230122,0.6143671937,-0.100181999,-0.7811743718,0.3606964356,0.9117095301,0.4710346151,-0.7659856548,-0.8114338623,-0.5177811041,-0.4329270489,-0.4519869806,-0.5923618265,0.5763313777,0.0457657512,0.0582289212,-0.3866634504,0.6733436721,0.3746995684,0.031978657,-0.9098447696,-0.8925920608,0.2976045508,-0.5079503649,-0.0009449913,0.7125797624,0.9909631337,-0.9630167703,0.2798088496,-0.6353779265,-0.7759369466,0.7430237474,0.5686721656,-0.5229761001,0.361251169,0.4603028932,-0.4257078027,0.2850118962,0.0792760756,0.0033404876,0.0107786211,-0.7049402195,-0.9292199201,-0.1317005309,-0.6105768474,-0.3722639648,0.4793796755,0.7255765975,-0.8992701136,-0.3248096627,-0.6521715983,0.3325912517,-0.8310962531,-0.8249267713,0.2822473079,-0.5708905679,0.9447625164,0.6399885359,0.6996891684,0.2010926195,-0.5326468276,0.0860864565,-0.256222232,-0.7578082833,0.276335747,0.9241990898,0.8611558741,0.5228765657,0.8276238928,0.1565512293,-0.5879759691,-0.4087067146,0.8655808735,-0.467694593,-0.758447904,-0.4391146588,-0.0647247491,-0.5784729611,0.8912654125,-0.5993988087,-0.2135096351,0.2203741755,-0.1257512556,0.7038998237,-0.7519751538,-0.3535294626,0.0820278537,-0.4324427491,-0.3528162606,0.5923373803,0.0798464478,-0.8961770076,0.3822521489,0.4175803253,0.9807376987,0.9494906127,0.7838586104,0.5008081079,-0.3901856119,0.6896204802,-0.2257942356,-0.1328865525,-0.185844357,0.3845723646,0.8140175285,-0.4881370037,0.1795121221,-0.5812167592,0.6249898017,0.9514459491,-0.0526928562,-0.3479674609,0.1979027369,-0.4873404288,-0.5202975956,-0.1150097357,-0.9592644957,-0.5940826276,-0.9448811552,-0.6224781829,0.7585311542,-0.7507743818,-0.9898400074,0.7008670435,-0.1455492942,0.2266362282,-0.846716349,-0.2511941737,-0.9293260154,-0.589778329,0.7721381757,-0.578524758,-0.5164101892,-0.1689904645,0.8785014013,0.7201952796,0.1934259228,-0.5527779623,-0.7097707562,0.1100364327,0.84052779,-0.8841415181,-0.0394336463,0.5864954194,0.179345445,-0.1215739863,-0.9508547946,-0.241921773,-0.1147885874,-0.3281878961,-0.2898166711,0.8621031225,0.2372884884,0.7382315885,-0.5783951366,-0.5605593697,-0.3628206947,-0.813245927,0.1341663563,0.1284452901,-0.3921841577,-0.5446131339,-0.8278584267,-0.707946347,0.575999563,-0.5422164405,0.0707967444,-0.3671020769,-0.0922073451,-0.8469646319,0.9055715366,-0.7445106116,-0.0816209803,-0.7486218063,0.4016214267,0.322799141,0.3594122815,-0.6987878797,-0.8880946191,-0.8184700334,0.3882749368,0.0904357252,-0.3562167017,-0.3073532773,-0.7429503962,-0.0763321527,0.4392139725,-0.1613900644,0.5052116578,-0.2489251942,0.1000184376,-0.6463932989,-0.6282320234,0.0919148108,-0.4550616035,-0.4957397038,0.6408394267,-0.7899779015,-0.6746236857,-0.4431485711,-0.8798750934,0.2714442109,0.6131883945,0.1717416614,-0.4641969711,0.1805628283,-0.9291294455,-0.6425409211,0.6216485543,-0.8306114969,-0.7859449577,-0.5208141807,-0.7067105715,0.3337900148,0.4725397413,0.0671747117,0.6793333795,-0.1877932288,0.3404206512,0.0513131962,0.6907983473,-0.9113088301,0.5671399775,-0.0674872767,-0.2429420959,-0.2240230265,0.4275816466,0.7122508127,0.1344479764,-0.3847444985,0.9563264335,-0.6030227272,0.9687028593,-0.5887529906,0.8527432754,-0.452833779,0.9635171136,-0.4029092288,0.1992195611,0.921620056,-0.4288411082,-0.0770488697,-0.5150100559,0.6761203612,-0.1208179542,0.8716735851,0.8358323553,-0.7976366868,0.124364531,0.5833851874,-0.6405857323,0.5803411492,-0.0863122032,-0.5118465354,-0.8941007419,0.1962409082,0.6877011663,-0.6299980618,0.760846847,-0.5426941603,0.0678421967,0.3062214134,0.9512010216,-0.5000029044,-0.6939229149,0.4446056586,-0.3323797027,-0.4652663266,0.7370178433,0.8653117234,-0.8004201536,0.6598969257,-0.3968717756,-0.1641419362,0.1352211067,0.4896663968,0.3158997427,-0.8994410715,-0.1234016531,0.0075055009,0.4623646934,-0.5925849985,-0.7802143957,-0.4677400946,-0.9830373262,0.6362793447,-0.5802153204,0.805797041,-0.5475639833,-0.1302356314,0.4216736337,0.660961031,0.0195623719,0.0343717593,0.1348659329,0.0076093856,0.6288325837,0.0007549639,0.55706619,-0.1723254651,-0.2613995263,0.4302590835,0.3681365273,-0.2450283141,-0.4901863783,0.0512681317,-0.592825803,-0.974468872,0.9867929997,0.3751770617,0.782692854,0.0337370612,0.3654353999,0.9580985593,-0.3021181872,0.9115032196,0.8588101859,-0.09628826,0.0093448622,0.8231545894,0.0773112969,-0.0237267468,-0.7419963047,0.2831953174,-0.0843501688,0.69174018,0.9596986138,-0.7589447059,0.2751854636,-0.7749993138,-0.8895779624,0.2329028671,0.9652403196,0.5602834104,0.0009169912,-0.31749285,0.5727973158,-0.0502940558,0.3311359549,0.3232115201,-0.7537631584,0.7471789341,-0.0785782827,-0.1273217866,-0.4545906135,0.0170104233,-0.8682095761,-0.5172839814,0.1211944679,-0.4244266656,-0.1742325178,-0.9835423511,0.8661170911,0.1109600798,-0.8554886624,-0.9442098718,0.4122455671,0.5053460223,0.8245253889,0.0881153101,0.2124270347,-0.9692639574,-0.2918007355,-0.680377032,0.2820135091,0.4570535251,0.7302904766,0.9728153109,0.1319772089,-0.2880883617,0.7370525401,-0.9212669712,0.4739596755,-0.4382677373,-0.6779088076,-0.6886455215,0.4719425808,-0.132068526,-0.8076770183,-0.5573453423,-0.8601008027,-0.4567270528,-0.2315340092,-0.7837000956,-0.9267477655,0.4344787182,0.9728122238,0.7723742544,-0.0300982994,0.1987139316,0.1826366454,0.3302027383,-0.0658777117,0.4715358097,-0.9244829056,-0.9627475343,0.6868870601,0.0494011573,0.4165242475,0.2602206673,0.0605580859,-0.677815574,-0.5024516567,0.2634217052,-0.6329934318,-0.4056260364,-0.5307481398,-0.9928195785,-0.3243026618,0.3076817557,-0.508674182,-0.473493566,-0.1180197403,0.0425836652,-0.3877845021,-0.0032771345,-0.7702658248,-0.5052040004,-0.0001053466,0.1105570364,-0.2069552526,-0.3482181903,-0.688626437,0.7698906205,-0.4154651995,-0.2645452941,-0.3325615067,0.7677716328
   -0.2698893523,0.898189262,0.2167123722,-0.6240548267,-0.8797499011,-0.5703702645,-0.5035459219,-0.7325490447,-0.0461292256,-0.2058986918,-0.3062585181,0.7109357813,0.1681579298,0.8774826339,-0.7356703374,0.7559251354,0.7836292776,0.9314523355,-0.2853778556,0.5647768036,-0.945706881,-0.6500613171,0.8970514957,0.9696313233,0.2427669736,-0.9918243931,-0.5442901081,0.1551178702,-0.280171667,0.970902457,-0.1003928751,-0.2045683992,-0.3353920438,-0.0136928673,-0.0119210486,-0.2843910341,-0.8320112985,0.5874782505,-0.9618333056,0.7448858844,0.2611671792,-0.4405678164,-0.5379479699,-0.6683601952,-0.3930305144,0.0330906992,0.8606426944,0.3121342719,-0.8372896327,-0.16346093,0.8464695838,-0.80579649,0.8545372491,0.7375957336,-0.9306229887,-0.2018192612,-0.519225093,0.9914999498,0.6947714807,0.7297899471,0.2415512858,0.5364532701,0.0677766892,0.6860599585,-0.1011648554,0.2461816433,0.5076853725,0.0645028953,0.4585802432,-0.5038342231,-0.1787145915,0.3788566831,0.9595119258,0.6858130183,0.807356243,0.2020606766,-0.966809043,0.5163728898,-0.0297619482,0.2726306119,-0.3743605392,0.1644843183,0.0031008232,0.8656067332,-0.4543679432,-0.867937442,-0.5044497045,-0.5961529244,-0.4467038098,0.8455918674,0.771395984,-0.6994042039,0.9889472556,-0.5767914748,0.2929865768,0.8905510624,0.0386305162,0.6352484342,0.1103631801,0.1155055991,-0.0515644618,0.2265796894,0.6061623486,0.3919300129,0.0217950048,-0.0408766621,-0.5122088959,0.2647377192,-0.5107092335,0.8681275117,0.0968392698,-0.2844647813,0.6899007184,0.5880447469,0.5021149211,0.8727749778,0.1116229198,-0.5469874424,0.3235038959,-0.2938510206,-0.6561234673,0.094410503,-0.8740144301,-0.3625294934,-0.2970426976,0.316816041,0.9958941726,0.1489592047,0.4968178476,-0.2773010275,0.0186501713,0.658677064,-0.5949941884,0.9373195246,-0.3556072933,0.2763744066,0.5495792038,0.2447146802,-0.6866996332,-0.059301857,-0.0703176991,-0.0866867958,0.4797903067,0.8046472029,0.673034363,-0.9762911763,-0.0557071516,0.9169491958,-0.568443215,0.1916158063,0.722232133,-0.897078071,-0.4067063777,-0.0307167586,-0.5515346254,0.5304716648,0.9077888918,0.4516648922,-0.9659576294,-0.8481205943,-0.5774863346,0.8263222775,-0.761016704,-0.2271166593,-0.5026297859,-0.7738861794,0.2190170315,-0.0760496216,-0.7404534309,0.6223005638,0.5521713341,0.4118832706,-0.0099360802,-0.4459988272,-0.4751516141,-0.7864018196,-0.0652330498,0.4622890864,0.0297295903,0.6210552219,-0.6329636248,0.1942105074,0.0335320116,0.9107788417,0.2677678521,-0.8984184922,0.6672263076,-0.7454275122,-0.7029131831,0.8066667501,0.9602311284,-0.9169984782,-0.3579329002,-0.1032508787,0.6618135615,-0.8742284588,0.1797591735,-0.7357316244,-0.5621369642,0.702994968,0.9646551453,0.4597928259,-0.7567463089,0.7109181533,0.2952268603,0.8199652315,0.2452649029,0.1004414643,0.0541057382,-0.5324933859,0.2392832683,0.9881528337,0.1740822814,-0.8893402956,0.925394553,0.1503348012,-0.127323946,-0.9729864416,0.3481033003,-0.3225554136,-0.283661822,0.6468725622,0.3410043283,-0.7225265112,0.2951629912,0.8090076927,0.4431447908,0.2499196976,-0.1160826636,0.7787158034,-0.3448389354,-0.1819780498,0.2432634139,0.6040470253,0.8879508749,-0.4854246504,0.3388211892,0.7146580176,0.4290956455,-0.9299998853,-0.68052311,0.0443031293,0.7658763031,0.3415513606,0.188147147,-0.3324501384,0.8947546142,-0.5074649198,0.5273153616,0.6775292167,0.4642838188,-0.4398148594,0.9451574494,-0.9670648438,-0.8581310116,-0.0770387516,-0.0202675365,-0.277005241,-0.0843082291,0.6078617376,0.7612989028,0.008792637,0.6582310249,-0.1123047019,0.0392654413,-0.0941562798,-0.4098315394,0.8166956383,0.7129635281,-0.8003954956,-0.0606642481,0.7039269667,-0.7028420021,0.2741918694,0.7957076215,-0.6297074315,-0.9785581837,0.6097777767,-0.8850166099,0.1378591008,-0.7555634337,-0.245801464,0.028389478,0.1020126957,0.4749419325,0.1875907655,-0.6911594068,-0.925226289,0.8980995688,0.0700195541,0.9838761535,-0.7665138207,0.3550387214,-0.2829443987,-0.568314192,-0.1867336783,0.4742396198,0.7870438386,0.4271276823,0.7773016411,-0.0158457573,-0.5852518627,-0.5862918707,0.7571933496,0.1846595419,0.9658882846,-0.816729081,-0.8789537254,-0.007124147,0.1157221398,0.3081510886,0.6002228373,-0.4624927094,-0.9416139023,0.0488396258,-0.3235702846,-0.461634844,0.10896819,-0.6068574179,0.7589917632,0.4382027902,-0.7198596171,0.9899116721,-0.51992382,-0.3384120068,0.9113602107,-0.212894647,0.0443629194,-0.0746761628,0.3726727556,0.1743806263,-0.7138298525,0.7844401337,-0.3575833061,-0.0475679394,0.8076356618,0.6473505348,-0.22848171,0.9665124077,0.3125628274,-0.2251618541,0.518217813,-0.9953878671,-0.4828894688,-0.0334312205,0.6432090131,-0.7222382894,0.5272267929,0.066328891,0.7396800113,0.638007372,-0.7793860825,0.4382032289,0.6692546839,0.0332736262,0.6653023664,0.5868871557,-0.9982624799,-0.6952057312,0.9274557164,0.510512385,0.4011909692,0.5112326226,0.7761969529,-0.1402163366,0.7481088451,-0.1754912736,-0.0445333949,-0.6672759887,0.2246804363,-0.0285558797,0.1835818248,0.4947004515,0.8426220891,0.9024075904,0.5255951248,-0.9752472216,-0.8402036333,-0.525922907,-0.5906902091,-0.3521102394,-0.3507604173,-0.7482184653,0.2582531095,0.1110481642,0.6001904518,-0.5416352072,0.504421941,0.2417430375,-0.4424553274,-0.8684609953,-0.7559459381,0.0149883049,0.9536859995,0.7322481244,0.9865906061,-0.5738711866,0.1257580355,-0.1359151944,0.0072864929,-0.3888022597,-0.5481453419,0.5924554097,-0.8607389288,0.8886027545,0.1206450022,-0.3711934463,0.5206891641,0.536326062,-0.6212561195,-0.113954763,-0.2678552375,-0.9147280878,-0.6600583026,-0.5723260677,0.285478917,0.9627122619,0.7149804672,-0.6219619649,0.3309550623,-0.2612338782,-0.4885020714,-0.9713437137,-0.3750783053,0.2593579597,0.6229333084,-0.2793625528,-0.1912941627,0.0393121864,0.6056913798,-0.8019316729,-0.8915518983,0.7537338412,0.5766304756,-0.7004063566,-0.8311291095,-0.3535618171,0.9888974514,-0.4203114369,-0.5999053748,0.0052432952,0.3341641165,-0.6559153189,0.0127790811,-0.5916428303,-0.4178248139,-0.7670618519,-0.7584590441,0.2920908086,-0.7168354663,0.2049545762,0.7526534414,0.3302201118,0.9409828535,0.0990829441,0.8816386989,0.3822155865,0.4706528096,0.4332725848,0.7969354306,0.9139790564,-0.6612072582,-0.9871553643,0.0900564143,0.3730912322,-0.4194780749,0.8745279239,-0.8758242011,0.2401059317,-0.0458704878,-0.9651231274,0.5239538898,0.7534377408,-0.9905267953,0.4725534235,-0.7441361365,-0.9909541658,-0.2393770403,-0.9669670443,-0.1740592502,-0.1681039516,-0.9107697071,-0.3598819564,0.4738112273,-0.1206605098,-0.9142885436,-0.4081624884,-0.0422755269,-0.4835022647,0.0747280304,-0.7721954291,0.8980015097,-0.5227931707,-0.9182166423,0.4695651347,0.6434345839,-0.8237753705,0.5228216534,-0.7082962216,0.5740626315,0.1903850233,-0.5026032676,-0.6828442863,-0.176012504,0.4904553625,0.7336120631,-0.0652005097,-0.4378950265,0.9836968236,-0.4515026505,-0.8026765077,-0.0794596112,0.1244469594,-0.8838216304,-0.9848962829,0.0103439158,0.7015512432,-0.1082098138,-0.4286617493,0.9021955053,-0.1438959959,-0.0962172142,0.7774332012,0.6501649674,-0.1348069676,-0.1853970293,0.2811356682,-0.8811939,-0.5719362375,0.3389190906,0.6535873668,0.5587073462,-0.2474326301,-0.542696248,0.3740408366,0.8915629531,-0.8007700839,0.9201180751,0.3859612076,0.3507781637,-0.0141289927,0.2999996762,0.4073189495,-0.4139285617,-0.4955710116,-0.9504650066,-0.3384649013,-0.3449982397,0.097935575,0.4055088476,-0.561309512,-0.9947317898,0.7669474248,0.8651755255,-0.1563506948,0.7634309827,-0.8186431416,-0.0349460355,-0.853509625,0.6741260662,-0.9716317987,0.4207605852,-0.2826701695,0.9451835312,0.3235673255,-0.841776247,0.955192904,0.0713414394,0.7588116411,-0.6885690889,-0.5475173658,0.1503632898,-0.275399559,-0.0603721823,0.1981033097,-0.2432764713,0.2594754967,-0.4855689808,0.762408361,0.2431083731,0.1694717979,-0.964459245,0.3695306604,0.8655229735,-0.5827876031,-0.6129675707,-0.4548208415,-0.1416237632,-0.367989846,-0.3959735279,-0.2366230213,-0.8528223357,-0.3504455717,0.4612255247,0.7817951079,0.6870610459,-0.9834128677,0.917363715,0.2004350009,0.2768066163,-0.8499813359,-0.0561027823,-0.7166820765,-0.9803837952,0.0442027729,-0.5822355327,-0.1376830271,0.4124207146,0.785559636,0.287326894,-0.4840576973,-0.4625240799,0.4854271571,-0.5054066896,0.781397569,-0.9812340245,0.9140081543,-0.3343776847,0.9137011537,-0.9911087478,-0.4911859834,0.3826875675,-0.5319912826,0.467712004,-0.9834209299,0.6822145213,0.4963253383,-0.9856552676,-0.1834752409,-0.2952020032,-0.2932103521,0.3941780555,0.5412779994,-0.8735465411,-0.5642451307,0.9126282564,-0.2422980858,0.0920166297,0.6844573276,0.0131410473,-0.9233871157,-0.0031367385,-0.6719028004,0.5267947151,0.9202625069,0.048819821,0.7361835745,-0.1782115861,-0.5648086453,-0.8743514864,0.113488229,0.9368796965,-0.1423232031,-0.8091827064,-0.9153261375,0.6099004382,-0.1821477929,-0.8931334648,0.6377360787,-0.8644234249,-0.9956483384,0.4792907376,-0.5779699714,-0.7536906732,0.2048292512,-0.4823444228,-0.3157266896,0.4608252338,-0.5302065166,-0.821696924,0.7489272575,-0.9930575646,0.9238465859,-0.0149631778,-0.5716216208,0.9170610161,0.0336365138,0.0938501206,0.4031559964,0.9127474379,0.79615315,-0.7885775914,-0.1499272607,0.7521987353,0.5402134788,-0.686218186,0.5914568138,0.1205917342,-0.7543940201,-0.0459021014,-0.4705954292,0.8133604267,-0.7816926998,-0.6790476178,0.6783656426,-0.1468951362,-0.3666136896,-0.0558772619,0.4992335024,-0.0625600209,-0.6985447922,0.2480165905,-0.4288901812,0.3186267559,0.1128053089,0.6821125098,0.1098343384,-0.6337101962,-0.941494637,0.6257248738,0.8554467752,0.8734783101,-0.9701534041,0.2001702849,-0.2164408892,0.0514402468,-0.4877893858,-0.1642038282,-0.1873676007,-0.4980740095,-0.573732992,-0.7743761512,-0.7149965141,-0.6729058382,0.4889493316,0.4897059037,0.8817772158,0.88442963,-0.3964481387,0.9248067289,0.4329597166,0.0953444951,0.1314349277,-0.3865028447,0.0302737089,0.6391838683,-0.0115583986,-0.7973697146,0.24997722,-0.6633412588,-0.0071505124,0.2732083653,0.8387662661,-0.9810552709,-0.3157181653,0.8599679525,-0.8436494442,-0.1963078492,0.2217083564,0.9529321893,0.3837632,0.4897553477,-0.086815562,-0.2464412683,-0.3070419791,-0.9694015225,0.7189359673,-0.5300424587,-0.4900147723,-0.9125386299,-0.4201743657,-0.717243718,-0.2580546986,0.8346682275,-0.4346248995,0.6844975983,0.1769921258,-0.1360452278,-0.0665420346,0.6894340709,0.6497472456,-0.7241353257,-0.8514223982,-0.7305581385,-0.08142641,0.6760097451,-0.6153562284,-0.6931177489,-0.844210216,-0.9722899082,0.6298270794,-0.987812339,-0.1486285254,0.0267186297,-0.3876510988,-0.0035706646,0.0275008466,-1.0040418742,0.5171743386,0.9868829678,0.2821090418,0.7935917393,-0.2201735728,0.3947155121,-0.3344788745,0.9064252213,-0.42080248,0.5554266648,0.2719348545,-0.3832999743,-0.7511454209,0.5036296182,0.9371986453,-0.0534319907,-0.0993032164,0.6444902996,0.000231463,0.5651019357,0.4297483602,-0.3412560935,-0.6107277348,0.4205776998,0.5783213799,-0.15475205,-0.2027960532,-0.2256063946,0.172033326,-0.2212155014,-0.3625382003,0.1839660162,-0.9159386671,-0.8881764179,-0.4515829264,-0.2920948626,-0.2646692087,-0.4235354259,-0.2894319901,0.4937447564,0.6217088363,-0.4022691716,0.2334627758,-0.9390298416,0.5977336504,0.3992185356,0.1619636742,-0.6267347739,-0.6956006081,0.6883706371,0.0665622571,0.9493271983,-0.6661456957,0.1630297174,-0.0173211445,-0.8302456808,-0.6754662002,0.7788630024,-0.7051387917,0.1870196333,-0.7827298478,0.6435331086,-0.1084864093,-0.7293842149,-0.4008262303,-0.3348670501,-0.2032700185,-0.7914955366,0.7277350645,-0.4386825304,0.8237032831,0.2269131291,0.558077896,-0.536709194,-0.9211562254,0.5838379268,0.2689855279,0.3354433524,0.8765323346,-0.0748318626,0.959119724,0.4858072714,-0.6688205626,0.8649145678,0.4756982633,0.2565853197,0.7253587,0.5873896346,0.0503221802,-0.8009680035,0.1932100599,0.7442517115,0.8922706761,0.0831986415,0.8487392209,-0.8256272506,0.6115311778,-0.8431797992,-0.9544223239,-0.2939587701,-0.655027468,0.1526580798,0.2833755925,0.138469834,0.1162756323,0.9245640533,-0.4930011587,0.8455387339,-0.683669539,0.2571859626,-0.3476427546,0.1980429921,0.7295947027,-0.5511754599,-0.4612100335,-0.6166318877,-0.8547616533,0.7773590452,0.6831919007,-0.8761375657,0.8150700782,-0.1326224801,0.4366420056,0.1342851109,0.850270831,-0.0859389918,0.0842639608,-0.8820815553,-0.3879721676,-0.4194521883,-0.0971788095,-0.989164229,-0.5804725957,0.9565186106,-0.1739643501,-0.6709871577,0.8716247848,0.6900000065,0.4282525899,-0.0125998356,0.3028869196,0.4185866336,-0.1545720996,-0.6046243645,0.6355921615,-0.2128667087,0.56413782,-0.2046708348,-0.2403938008,-0.7107413192,-0.7284475984,0.7593807743,-0.0047905491,0.5063994624,0.1027535779,-0.071536533,-0.2155079378,0.3939074039,-0.0359142923,-0.2289651865,0.9139254451,-0.497127595,0.1304021788,-0.7997772214,0.8529270674,0.9137585983,-0.7564605568,0.1321766926,-0.2216840547,-0.1534824107,0.1257573813,-0.992430761,0.9881020017,-0.8980380696,0.6732484179,0.6291367881,0.9103093261,0.3598284881,-0.8796966467,-0.2483375058,-0.9217216268,-0.1845603391,0.7575858101,0.9529279026,0.5606603915,-0.5434936967,0.1677308733,0.161549235,0.931059268,-0.4300401953,0.0795577428,0.5901564873,-0.1268039857,-0.971371519,-0.2713063274,0.1208890032,0.639884104,-0.2939194172,-0.8092598535,0.4609052335,-0.9694367218,0.3675220419,-0.1481063065,0.957615631,0.1139451565,-0.5192272915,0.6619240553,0.9633531484,0.4532740076,0.3327062338,0.5546122763,-0.8938289967,0.6484246565,0.99263717,-0.7987614572,0.7909433376,0.0455853163,-0.0711111657,-0.7109333671,0.0684486112,0.7341071715,-0.119376242,-0.8442890535,-0.0042682864,-0.2973140957,-0.9094242214,-0.5143782913,-0.6994896025,-0.4064907684,0.4725139043,-0.3881061835,-0.5180953554,0.6498411659,0.7556263309,-0.7145633742,-0.4979667484,-0.9623387628,0.7148961296,0.0139140338,0.7941490849,-0.3693624344,0.8554851396,0.2517316499,0.8446544971,0.8683848651,0.2472708271,-0.8062982999,-0.5495768286,-0.3291616947,-0.9273872195,0.6469387261,-0.9193495886,-0.6260755801,-0.7694401123,-0.852539098,-0.4530666732,0.7615358737,-0.3856432609,0.6708705175,0.0073552058,0.3833638239,-0.0366858645,0.1351329021,-0.6441038271,-0.6142319047,-0.1125163046,0.5471049465,-0.3166660774,0.7965764598,0.6684005971,-0.5058220623,-0.1815404384,-0.2244739229,-0.109381914,-0.2946316477,0.6635606682,-0.8277656814,-0.4586046382,-0.3794415043,-0.6779412588,0.1369819153,0.9290293283,0.1656665004,-0.5889720081,-0.1474359818,0.138018437,0.8444489697,0.1269103362,-0.9568776433,-0.4889057441,-0.5438142268,-0.853770251,-0.885047565,-0.5782176481,-0.9513300631,-0.419679448,-0.7379999474,-0.6606622355,-0.554497725,-0.6747537039,-0.5715547225,-0.3334035682,-0.0183471358,-0.6475562843,0.6338444496,0.0470805096,0.4585796575,0.5221990269,0.7402672965,-0.7088701778,0.2937422143,-0.5576854863,-0.3501650455,-0.2121833873,0.7140394878,-0.3861165865,-0.4598339509,-0.7645995946,0.6554184626,0.0178803804,0.9624736188,0.6801435605,0.2457819905,-0.0356879344,0.3629602815,0.3681469796,-0.2106327024,0.6290148215,-0.8088093425,0.0853416547,0.5848929909,0.4527298484,-0.6910277573,-0.7667408847,0.249628862,0.6810430788,-0.6216400788,-0.4818132258,0.5872174622,-0.8481761938,0.6274958005,0.7806345325,0.9164980152,-0.5571568123,-0.3724269382,-0.1801836657,-0.0577718567,-0.6189317383,0.8587714656,0.0133493424,-0.8280928552,0.0101212934,-0.2985203046,0.8259849682,-0.0088424935,-0.1075395148,0.8654140436,-0.1655162435,0.1000512387,0.221440276,-0.2144390217,-0.8883481484,-0.9052610854,-0.9033745888,0.5206099883,-0.1777226907,0.4270144415,0.7416407505,0.6557150674,0.4471644155,-0.8983022635,0.8926380543,-0.1415277607,0.3211871234,-0.7287062289,-0.1929082641,0.9926919108,-0.9641129984,0.4433204848,0.1973444392,0.95995843,0.3562054806,-0.5463945527,0.9157913991,0.5869964452,-0.4722534862,0.3501417092,-0.2129708291,-0.1107512341,0.5875392774,0.0855815742,0.4183674493,0.1875759192,-0.2923512613,-0.2167946089,0.1394033814,-0.6118132016,-0.3718479346,0.2280665201,-0.5296194957,0.1698404005,-0.1757937578,0.5104752085,-0.7673857288,-0.2220654895,0.4770773079,0.4234719759,0.4845511283,-0.4716317506,0.8464861366,0.595729521,0.7659328987,-0.5197687186,0.5293665173,0.6145089308,-0.8464579436,0.7029880558,0.2783054259,-0.9797343395,-0.6715749485,0.4604699274,-0.5374558673,-0.9226002618,-0.7237893975,0.0341774894,0.8717475134,0.9297436181,-0.7868341962,-0.9892249739,-0.4446373596,0.4400441835,0.2604331227,0.2636099788,-0.3120719857,0.1374401706,0.7665523741,-0.4257739992,-0.4443150287,-0.6995309487,-0.7299821703,0.9566157567,-0.1850289966,0.3181405256,-0.617770955,-0.6695003364,0.3231245758,-0.1584126924,0.8401698991,-0.2131046578,-0.3233782613,-0.5329731187,-0.7550644286,-0.3497141984,0.6069129788,-0.766800909,0.4620362767,-0.0953544538,-0.8429563671,0.9935450255,0.4980225563,0.6941093696,-0.8079333441,0.1376605202,0.0994404304,0.0083903328,-0.2584428083,0.0200199296,-0.4716356624,0.4672166677,-0.3094164759,-0.0541288524,-0.1404843199,-0.4322669321,0.2042635369,0.4500787103,-0.3039587944,-0.2932231281,-0.605632675,0.5857073374,-0.7430795838,-0.9208414336,-0.6367508887,0.7058005764,-0.181701115,-0.3346458293,-0.5231893461,-0.6572126525,-0.1819532584,-0.555343033,-0.5582195666,-0.0092694862,-0.7627661551,0.3432795767,-0.5700695112,0.629000409,-0.0861495206,0.9398398972,-0.4270924521,0.1309212637,0.9464503114,-0.4780119352,-0.7831201121,0.6303549783,-0.4523592699,-0.364992068,-0.9132912579,0.8197569937,-0.0798460978,0.7795874689,-0.220298526,0.9400409416,0.6789831042,-0.335535481,0.1385766736,0.1012401071,0.878245573,-0.6328795932,-0.7949309023,-0.2224521574,-0.8526248367,0.2060510618,-0.6494825365,-0.4608997112,-0.3497201826,-0.9828043846,0.6987534674,-0.0427011165,0.8294014872,0.4426998707,-0.2548999634,0.3448633859,-0.4794314477,-0.1931268482,0.177861251,0.6835100698,0.9088428985,-0.272156799,0.3516585571,0.6867687907,0.3020225958,0.9666959623,-0.4982276482,-0.6491078495,-0.8518004509,0.0054691598,-0.8216437546,-0.5610619418,0.2030788989,-0.9161327367,0.1979500079,0.4941828456,-0.6520281012,-0.7484798772,-0.5807489262,-0.1495936412,-0.6860608356,-0.5904195613,0.5315082589,0.144127035,0.977757987,-0.3865449477,0.2057395636,0.2399195244,-0.2900891348,0.0784387643,-0.8631880172,0.0273528284,-0.5980828417,-0.347350593,-0.9829381128,0.3600406437,-0.9909447588,-0.821079105,0.7607009065,-0.265754432,-0.1137163465,-0.1141671704,-0.0662710486,-0.7827494839,0.4618758195,0.0554879855,-0.8546704745,0.7141165442,0.3318633104,-0.2700456641,-0.9099355032,-0.7784992006,0.942644425,0.9104753822,-0.9886559971,0.6592526967,-0.0125003964,-0.1509615917,-0.6079691598,-0.2302328317,-0.3530531359,-0.2744872786,0.4371737803,0.1481689756,-0.2586059331,-0.6638467643,0.5410750675,-0.5541506688,0.132142659,-0.063354122,0.0511676164,0.5257291051,-0.9883565725,0.4493691911,0.4322697836,0.2953674398,-0.9274988437,0.3248570884,0.4885557344,-0.3189479023,-0.9818949402,-0.0280354867,0.3473896652,-0.4166528786,-0.5279937302,0.5554727267,0.3147060775,0.1251540971,0.4355665136,0.4782262548,0.2638070643,-0.6716843203,0.5842613735,-0.1722675547,-0.0533784293,-0.7483928838,-0.1115383345,0.1829980729,0.8700727233,-0.8571043326,0.4787150183,0.0800498896,-0.0018473426,-0.2550542228,0.5894493521,0.2105487128,-0.8436969906,0.1882542234,-0.4205771716,-0.3564028245,0.9508276743,0.7448027774,0.8392581619,0.0638047726,0.4288331189,0.7076330873,-0.7710675377,0.6509671844,-0.4320223656,0.635660876,0.4024913188,-0.4544661134,-0.631905439,-0.3664040186,0.9277742104,0.6521818339,0.3544311166,0.7570360242,-0.1182673773,0.4406105225,-0.6506819035,-0.3743950406,-0.1334466808,-0.1069446096,-0.3665437134,0.8527406862,0.673341437,-0.486582428,-0.6931740803,-0.8198338682,0.171580146,0.817063629,0.9660147269,0.8943189449,0.5550979858,-0.8132972562,-0.1488928088,0.3279504302,0.3390380656,-0.2144133128,-0.7143016149,-0.1864157901,-0.4743153642,-0.7658638692,0.4470277955,-0.4236417742,-0.1434904161,0.0118142588,-0.3451705573,-0.5379765382,-0.2921464004,-0.5398593234,-0.4140723388,-0.4435761227,0.5708640998,-0.2468039425,-0.5730568166,0.7725485007,-0.439606747,0.4394144873,-0.2564068776,-0.0086833797,0.8476782308,-0.7116253354,0.0240513046,0.1304185517,0.3187244161,-0.7985766334,0.0260766954,-0.1786209191,0.7418106405,-0.6177447395,0.1438944078,0.0702211385,-0.2130685912,-0.4968113481,0.737237089,0.4777135566,0.2975572021,0.2527558003,0.3093223106,-0.7927846715,0.2687458254,0.620806288,-0.3426124599,0.8025718575,-0.0262638006,-0.97412329,-0.611605488,0.2279122467,-0.038786366,0.9711957293,0.7713388967,0.2344902349,0.3324908707,0.9747356337,0.9295424723,-0.3402531546,-0.3765369006,0.357032554,0.3139883997,0.1224949098,0.4425169468,0.2060390153,-0.5583850672,-0.8059848043,-0.7546381178,0.4913619343,-0.4637671663,-0.3614696445,0.5627367885,-0.5605455594,-0.6499347895,-0.3057517544,-0.9254165158,0.2269467269,-1.0095726928,-0.4701707778,0.4467832394,0.021884864,0.0650458482,-0.0433950071,0.1712680055,-0.4236517355,-0.0413701131,-0.2935504335,-0.0235107529,-0.7910752387,0.0914658477,-0.4357283091,0.7266601535,0.6564654922,-0.5237276222,-0.5137043667,-0.0442076461,0.1484223574,0.1495355864,-0.588982957,0.4016393093,0.3451378178,-0.3136433109,-0.8768632739,0.4246102539,-0.4929706992,-0.6610123017,-0.2470217049,0.0446696379,-0.094941281,-0.7330065714,-0.3929095137,0.7829458908,-0.7554900515,0.9923033587,0.8660946717,-0.9975346418,-0.4502900796,0.3192543046,0.6361862447,0.8250516976,0.5005371672,-0.2158662012,-0.4685183718,0.9201823593,-0.6563415679,0.7953629075,-0.5155624119,0.6278440028,0.0343292821,-0.9255964279,-0.5334332502,0.9094724798,0.541309383,-0.7906836822,-0.8494002386,0.0606191756,-0.786849735,0.117415853,-0.7630205351,-0.7689627154,0.8667023855,-0.8662126604,0.3070246391,-0.3567566204,-0.4258216038,-0.1801839552,-0.8624393134,-0.0908264438,-0.9942416478,0.5796618507,0.0696704683,-0.0578931656,-0.6362412863,-0.4249822964,0.5249770787,-0.4757240464,-0.3923264894,0.6979312075,-0.4864051758,0.3166564637,-0.309738683,-0.9171807442,-0.2949416027,-0.6038299113,0.0299622216,-0.203495011,0.823113934,0.6952856434,0.9412546838,-0.4504317842,-0.9187416469,0.8225122383,0.8112603984,0.5870420177,0.2081105315,0.2378438978,0.0493097123,-0.3342272117,0.3210583195,0.6534897153,0.8568309973,0.7074013281,0.2282476836,0.66817282,-0.9217907278,0.7350959712,-0.4052736205,-0.3525612394,0.9629152067,-0.8118219187,0.1387944455,-0.4028316075,0.4594558532,-0.4940613462,0.8518619965,-0.1812147289,0.7343195567,-0.110329612,0.0613690156,0.6633062062,0.1029417956,0.298838923,0.2817741549,0.6523118525,-0.7798169453,-0.0258118739,-0.770997182,-0.9839204936,0.8843834167,-0.4484164388,0.1978545282,-0.2850759424,-0.7150211341,0.2024506146,0.4327671399,-0.7607763875,0.6552454512,0.9124487483,0.5841911309,0.1990021607,-0.0276853586,0.1539316504,0.042337679,0.8546928194,-0.7086462108,-0.3163790555,0.6857219133,-0.7344491038,0.1068229107,-0.3186332958,-0.5853166455,-0.3103949915,-0.5741954648,0.2492095837,0.5463408328,-0.2262635799,-0.1200667466,0.8285168049,-0.417150545,0.9016714518,0.0435833658,0.7348379786,0.2236580438,-0.8337734468,0.7500443902,-0.1142822447,-0.5034304588,-0.8258854147,0.0496787471,-0.0739521252,0.6864128914,0.6100057233,-0.7355935804,0.0995537691,-0.580988953,-0.6603902835,-0.186018296,-0.7124975096,-0.7419030625,0.0293345503,-0.4114348082,-0.0010438226,0.1656381384,-0.3876358571,0.2530563606,-0.0228139633,-0.5161586108,-0.0676487825,0.2648852871,-0.6014674985,-0.4685022973,-0.3137249345,0.4958037291,-0.1802262574,-0.8511575612,-0.2166509332,0.0242242695,0.0242012802,-0.3660670883,-0.2727313742,-0.4970841726,-0.8878664044,-0.7169197366,0.4328175412,0.0612154832,-0.6505935139,-0.7630138996,0.6521047231,-0.1241443104,-0.074003354,0.2033044343,0.3577291388,-0.6945024434,0.5092292855,0.8168815403,-0.7451371975,-0.6319903049,-0.244758733,0.1659059911,0.5549884082,-0.0591796867,-0.1653481569,-0.5081065397,0.5695280418,-0.8475288652,0.9352386944,-0.7652905909,0.8666940538,0.7137659442,0.9397240883,0.279402449,0.1009423227,-0.9407655998,0.3727329712,-0.8150650986,0.860133646,-0.4170621437,0.4041865787,0.8048256909,-0.4563951461,-0.8037100346,0.2805061584,-0.5917460168,-0.75748062,-0.0359730133,-0.3610674862,-0.1173301761,-0.6489890331,-0.3293210188,0.243040079,0.8706848708,-0.6756747951,-0.2116449318,-0.1530914713,0.7980025734,0.9503451974,-0.3800518247,0.4096434187,-0.7031322604,0.5228425529,-0.6215742972,0.240034947,0.5532713656,-0.7915588976,-0.4900431923,-0.3730799605,0.7983369454,-0.1894493122,-0.6417458163,0.0342808016,-0.0581644273,-0.3824545211,-0.9087743072,-0.3580688238,0.3886267947,0.8256326935,-0.0575156426,0.4884468162,-0.6749668704,-0.9274051367,0.926816746,0.0277491421,-0.8189397722,-0.6577815317,0.572123513,-0.6835459993,-0.331994382,0.1079031093,-0.2380207944,-0.2620824053,-0.2310568853,-0.9700184893,-0.4224698737,-0.612109629,0.0045882122,-0.8264378645,0.2114700607,0.6710650756,-0.6855124599,0.6557439853,0.7984431556,-0.1294106503,-0.6462399103,-0.0971719932,-0.3061448563,0.788687496,0.2317080716,0.7312764339,0.0244733358,0.8367140084,-0.3014169516,0.8165299817,-0.6416848684,-0.9216760328,-0.7857521673,0.4430297247,-0.4533824703,-0.9591550152,0.3686916674,-0.307096954,-0.1396010005,-0.8612782031,0.9516963468,0.2029720985,0.4639158752,0.662239506,0.5593399697,-0.6368072316,0.376197472,-0.6120970113,0.9167057221,0.9603423101,-0.464701233,0.928709553,-0.7273270011,-0.2764413414,-0.9395217586,-0.822269641,-0.0137927763,-0.4877302502,-0.7997124622,-0.5713369053,0.4582595115,-0.6238232754,0.2730401334,-0.784334357,-0.0572451995,0.2501619071,0.9262950278,-0.6396562439,0.4335535582,0.7451101657,0.7424206951,0.4851878533,0.0864999697,0.2855829411,-0.177678098,-0.8219576338,-0.5283808604,0.9144067206,-0.1185741897,-0.067547067,-0.0744277112,-0.6936476807,-0.2831067116,-0.5368659082,0.3817059089,0.1294290154,0.9083845607,0.7569909473,-0.0989364307,-0.4355611878,-0.796344771,-0.9585433408,0.7099928301,0.7044488294,0.0722560861,0.1506888494,-0.1753278177,-0.078869047,0.6023580382,0.6317299491,0.3077755028,0.4995804681,0.0331443131,-0.7969453161,-0.6288156962,0.7720467463,0.5457050102,0.9188809634,-0.6621854207,0.5201380179,-0.4367626377,-0.5988586522,0.1546618204,-0.2902402825,0.8208339478,-0.7786517761,0.5235809146,0.3590388619,-0.8311332501,0.0954980757,0.2059699488,-0.7058302268,0.8907001955,0.7581817287,-0.7933570409,-0.1971220316,0.9451075221,-0.7926530948,0.797298207,0.7636876281,0.0646528294,-0.8008994898,0.5405912144,-0.8565538868,-0.6386282245,0.7427271341,0.8276308868,0.5253586815,0.5006511964,-0.8677706209,0.8548754081,-0.4098497423,-0.8464063868,0.3052981872,0.7718587134,-0.4363427516,0.5985419157,-0.2709674575,-0.6446002915,0.1332015933,0.6842248231,0.11251165,0.02832948,0.671652627,0.7280577977,0.8480162286,-0.3710821452,-0.2416307098,0.5104179037,-0.0033996345,0.6984053386,0.4195475782,0.0021496478,0.3196461814,0.1687917808,0.7451423174,-0.8583445762,0.462031196,-0.9309236748,0.2051060177,-0.1808604631,-0.5704810029,0.823937098,0.8463456194,-0.8374470741,0.3221541263,-0.5307417039,0.1702571777,-0.7509498738,-0.8020317243,-0.9048040823,-0.3453319507,0.9905692302,-0.2409605661,0.4263964908,0.4143982467,-0.7588357618,0.9071190091,0.3050881699,-0.2957439124,-0.7262320071,-0.9883939782,0.656982456,-0.69339058,0.0430269823,0.1427370567,0.3784537712,-0.7522069918,-0.3565123164,-0.2247874989,-0.0239208007,0.1855777809,-0.9824637154,0.9950494696,0.4718990478,0.3962967458,0.2407059626,0.6407684148,-0.9930923718,0.6258587443,0.9840611404,0.4401217925,0.2945776844,0.4831715113
